digraph Tree {
node [shape=box, fontname="helvetica"] ;
edge [fontname="helvetica"] ;
0 [label="X[0] <= 67350.699\nsquared_error = 127470533878.02\nsamples = 3500\nvalue = 1228219.149"] ;
1 [label="X[1] <= 6.018\nsquared_error = 90648472609.963\nsamples = 1558\nvalue = 1020478.871"] ;
0 -> 1 [labeldistance=2.5, labelangle=45, headlabel="True"] ;
2 [label="X[4] <= 33565.334\nsquared_error = 72053815971.48\nsamples = 822\nvalue = 886683.011"] ;
1 -> 2 ;
3 [label="X[0] <= 55903.318\nsquared_error = 62771308466.862\nsamples = 340\nvalue = 753240.131"] ;
2 -> 3 ;
4 [label="X[4] <= 26357.622\nsquared_error = 38810856020.216\nsamples = 85\nvalue = 535583.349"] ;
3 -> 4 ;
5 [label="X[0] <= 51150.795\nsquared_error = 31838824626.684\nsamples = 39\nvalue = 427588.895"] ;
4 -> 5 ;
6 [label="X[4] <= 20322.625\nsquared_error = 20161370497.914\nsamples = 19\nvalue = 318087.866"] ;
5 -> 6 ;
7 [label="X[4] <= 16062.992\nsquared_error = 9205181609.232\nsamples = 4\nvalue = 151711.3"] ;
6 -> 7 ;
8 [label="squared_error = 0.0\nsamples = 1\nvalue = 15938.658"] ;
7 -> 8 ;
9 [label="X[0] <= 49940.389\nsquared_error = 4080593137.726\nsamples = 3\nvalue = 196968.847"] ;
7 -> 9 ;
10 [label="X[4] <= 18015.856\nsquared_error = 74199.614\nsamples = 2\nvalue = 151799.479"] ;
9 -> 10 ;
11 [label="squared_error = 0.0\nsamples = 1\nvalue = 152071.875"] ;
10 -> 11 ;
12 [label="squared_error = 0.0\nsamples = 1\nvalue = 151527.083"] ;
10 -> 12 ;
13 [label="squared_error = 0.0\nsamples = 1\nvalue = 287307.584"] ;
9 -> 13 ;
14 [label="X[0] <= 46514.988\nsquared_error = 13732939561.143\nsamples = 15\nvalue = 362454.95"] ;
6 -> 14 ;
15 [label="X[2] <= 8.03\nsquared_error = 3571618025.191\nsamples = 6\nvalue = 271351.926"] ;
14 -> 15 ;
16 [label="X[2] <= 5.651\nsquared_error = 333815280.81\nsamples = 5\nvalue = 297016.838"] ;
15 -> 16 ;
17 [label="squared_error = 0.0\nsamples = 1\nvalue = 268050.815"] ;
16 -> 17 ;
18 [label="X[4] <= 25130.221\nsquared_error = 155072060.91\nsamples = 4\nvalue = 304258.344"] ;
16 -> 18 ;
19 [label="X[3] <= 4.085\nsquared_error = 16559994.063\nsamples = 2\nvalue = 295793.643"] ;
18 -> 19 ;
20 [label="squared_error = 0.0\nsamples = 1\nvalue = 291724.246"] ;
19 -> 20 ;
21 [label="squared_error = 0.0\nsamples = 1\nvalue = 299863.04"] ;
19 -> 21 ;
22 [label="X[4] <= 25724.344\nsquared_error = 150281785.348\nsamples = 2\nvalue = 312723.046"] ;
18 -> 22 ;
23 [label="squared_error = 0.0\nsamples = 1\nvalue = 324981.993"] ;
22 -> 23 ;
24 [label="squared_error = 0.0\nsamples = 1\nvalue = 300464.099"] ;
22 -> 24 ;
25 [label="squared_error = -0.0\nsamples = 1\nvalue = 143027.364"] ;
15 -> 25 ;
26 [label="X[2] <= 7.235\nsquared_error = 11285197250.859\nsamples = 9\nvalue = 423190.3"] ;
14 -> 26 ;
27 [label="X[2] <= 6.072\nsquared_error = 4611757682.429\nsamples = 7\nvalue = 376550.397"] ;
26 -> 27 ;
28 [label="X[3] <= 2.815\nsquared_error = 99970881.361\nsamples = 2\nvalue = 304169.29"] ;
27 -> 28 ;
29 [label="squared_error = 0.0\nsamples = 1\nvalue = 314167.834"] ;
28 -> 29 ;
30 [label="squared_error = 0.0\nsamples = 1\nvalue = 294170.746"] ;
28 -> 30 ;
31 [label="X[3] <= 4.08\nsquared_error = 3482618643.023\nsamples = 5\nvalue = 405502.839"] ;
27 -> 31 ;
32 [label="X[0] <= 50400.713\nsquared_error = 273863050.484\nsamples = 3\nvalue = 448551.981"] ;
31 -> 32 ;
33 [label="X[0] <= 49755.773\nsquared_error = 32742154.935\nsamples = 2\nvalue = 459777.732"] ;
32 -> 33 ;
34 [label="squared_error = 0.0\nsamples = 1\nvalue = 465499.808"] ;
33 -> 34 ;
35 [label="squared_error = 0.0\nsamples = 1\nvalue = 454055.656"] ;
33 -> 35 ;
36 [label="squared_error = 0.0\nsamples = 1\nvalue = 426100.481"] ;
32 -> 36 ;
37 [label="X[4] <= 25035.569\nsquared_error = 1346144635.515\nsamples = 2\nvalue = 340929.126"] ;
31 -> 37 ;
38 [label="squared_error = 0.0\nsamples = 1\nvalue = 377618.97"] ;
37 -> 38 ;
39 [label="squared_error = -0.0\nsamples = 1\nvalue = 304239.282"] ;
37 -> 39 ;
40 [label="X[2] <= 7.323\nsquared_error = 381567280.778\nsamples = 2\nvalue = 586429.96"] ;
26 -> 40 ;
41 [label="squared_error = 0.0\nsamples = 1\nvalue = 566896.212"] ;
40 -> 41 ;
42 [label="squared_error = 0.0\nsamples = 1\nvalue = 605963.707"] ;
40 -> 42 ;
43 [label="X[1] <= 5.203\nsquared_error = 20720050464.705\nsamples = 20\nvalue = 531614.872"] ;
5 -> 43 ;
44 [label="X[0] <= 53308.125\nsquared_error = 3503977186.425\nsamples = 5\nvalue = 359099.534"] ;
43 -> 44 ;
45 [label="X[0] <= 51420.006\nsquared_error = 1360438773.075\nsamples = 2\nvalue = 422562.293"] ;
44 -> 45 ;
46 [label="squared_error = 0.0\nsamples = 1\nvalue = 385678.167"] ;
45 -> 46 ;
47 [label="squared_error = 0.0\nsamples = 1\nvalue = 459446.419"] ;
45 -> 47 ;
48 [label="X[3] <= 2.17\nsquared_error = 457978602.402\nsamples = 3\nvalue = 316791.028"] ;
44 -> 48 ;
49 [label="squared_error = 0.0\nsamples = 1\nvalue = 288708.912"] ;
48 -> 49 ;
50 [label="X[1] <= 5.004\nsquared_error = 95513978.132\nsamples = 2\nvalue = 330832.086"] ;
48 -> 50 ;
51 [label="squared_error = 0.0\nsamples = 1\nvalue = 340605.211"] ;
50 -> 51 ;
52 [label="squared_error = -0.0\nsamples = 1\nvalue = 321058.961"] ;
50 -> 52 ;
53 [label="X[4] <= 19745.737\nsquared_error = 13231389565.176\nsamples = 15\nvalue = 589119.985"] ;
43 -> 53 ;
54 [label="X[4] <= 18312.012\nsquared_error = 2212353287.252\nsamples = 3\nvalue = 433238.287"] ;
53 -> 54 ;
55 [label="X[4] <= 12319.027\nsquared_error = 20795224.118\nsamples = 2\nvalue = 400083.424"] ;
54 -> 55 ;
56 [label="squared_error = 0.0\nsamples = 1\nvalue = 395523.246"] ;
55 -> 56 ;
57 [label="squared_error = -0.0\nsamples = 1\nvalue = 404643.602"] ;
55 -> 57 ;
58 [label="squared_error = 0.0\nsamples = 1\nvalue = 499548.011"] ;
54 -> 58 ;
59 [label="X[4] <= 25975.592\nsquared_error = 8392678644.078\nsamples = 12\nvalue = 628090.41"] ;
53 -> 59 ;
60 [label="X[2] <= 6.707\nsquared_error = 6021077398.592\nsamples = 11\nvalue = 644252.536"] ;
59 -> 60 ;
61 [label="X[1] <= 5.798\nsquared_error = 4675631693.491\nsamples = 6\nvalue = 595279.475"] ;
60 -> 61 ;
62 [label="X[3] <= 2.815\nsquared_error = 986251512.694\nsamples = 3\nvalue = 532082.714"] ;
61 -> 62 ;
63 [label="squared_error = 0.0\nsamples = 1\nvalue = 492984.595"] ;
62 -> 63 ;
64 [label="X[2] <= 6.384\nsquared_error = 332880091.445\nsamples = 2\nvalue = 551631.773"] ;
62 -> 64 ;
65 [label="squared_error = 0.0\nsamples = 1\nvalue = 569876.775"] ;
64 -> 65 ;
66 [label="squared_error = 0.0\nsamples = 1\nvalue = 533386.771"] ;
64 -> 66 ;
67 [label="X[0] <= 53939.025\nsquared_error = 377350471.683\nsamples = 3\nvalue = 658476.237"] ;
61 -> 67 ;
68 [label="squared_error = 0.0\nsamples = 1\nvalue = 685123.139"] ;
67 -> 68 ;
69 [label="X[1] <= 5.891\nsquared_error = 33482662.775\nsamples = 2\nvalue = 645152.786"] ;
67 -> 69 ;
70 [label="squared_error = 0.0\nsamples = 1\nvalue = 639366.366"] ;
69 -> 70 ;
71 [label="squared_error = -0.0\nsamples = 1\nvalue = 650939.207"] ;
69 -> 71 ;
72 [label="X[4] <= 25753.313\nsquared_error = 1303939966.062\nsamples = 5\nvalue = 703020.21"] ;
60 -> 72 ;
73 [label="X[3] <= 4.05\nsquared_error = 362296371.049\nsamples = 4\nvalue = 687097.719"] ;
72 -> 73 ;
74 [label="X[2] <= 6.843\nsquared_error = 141431461.939\nsamples = 3\nvalue = 677856.096"] ;
73 -> 74 ;
75 [label="squared_error = 0.0\nsamples = 1\nvalue = 661043.357"] ;
74 -> 75 ;
76 [label="X[4] <= 23414.396\nsquared_error = 146034.469\nsamples = 2\nvalue = 686262.466"] ;
74 -> 76 ;
77 [label="squared_error = 0.0\nsamples = 1\nvalue = 685880.321"] ;
76 -> 77 ;
78 [label="squared_error = 0.0\nsamples = 1\nvalue = 686644.61"] ;
76 -> 78 ;
79 [label="squared_error = 0.0\nsamples = 1\nvalue = 714822.587"] ;
73 -> 79 ;
80 [label="squared_error = 0.0\nsamples = 1\nvalue = 766710.173"] ;
72 -> 80 ;
81 [label="squared_error = -0.0\nsamples = 1\nvalue = 450307.017"] ;
59 -> 81 ;
82 [label="X[2] <= 6.283\nsquared_error = 26450570261.48\nsamples = 46\nvalue = 627143.864"] ;
4 -> 82 ;
83 [label="X[0] <= 42618.775\nsquared_error = 33630664629.159\nsamples = 12\nvalue = 470354.08"] ;
82 -> 83 ;
84 [label="squared_error = 0.0\nsamples = 1\nvalue = 31140.518"] ;
83 -> 84 ;
85 [label="X[2] <= 5.32\nsquared_error = 17556571028.66\nsamples = 11\nvalue = 510282.585"] ;
83 -> 85 ;
86 [label="X[1] <= 4.973\nsquared_error = 225336585.958\nsamples = 2\nvalue = 268196.917"] ;
85 -> 86 ;
87 [label="squared_error = 0.0\nsamples = 1\nvalue = 283208.132"] ;
86 -> 87 ;
88 [label="squared_error = 0.0\nsamples = 1\nvalue = 253185.702"] ;
86 -> 88 ;
89 [label="X[2] <= 5.663\nsquared_error = 5490421167.462\nsamples = 9\nvalue = 564079.4"] ;
85 -> 89 ;
90 [label="X[1] <= 5.235\nsquared_error = 358582674.591\nsamples = 4\nvalue = 494869.723"] ;
89 -> 90 ;
91 [label="squared_error = 0.0\nsamples = 1\nvalue = 524712.766"] ;
90 -> 91 ;
92 [label="X[2] <= 5.597\nsquared_error = 82284793.247\nsamples = 3\nvalue = 484922.042"] ;
90 -> 92 ;
93 [label="X[1] <= 5.352\nsquared_error = 7250091.549\nsamples = 2\nvalue = 478699.044"] ;
92 -> 93 ;
94 [label="squared_error = 0.0\nsamples = 1\nvalue = 481391.643"] ;
93 -> 94 ;
95 [label="squared_error = -0.0\nsamples = 1\nvalue = 476006.445"] ;
93 -> 95 ;
96 [label="squared_error = -0.0\nsamples = 1\nvalue = 497368.037"] ;
92 -> 96 ;
97 [label="X[1] <= 5.302\nsquared_error = 2698321482.078\nsamples = 5\nvalue = 619447.143"] ;
89 -> 97 ;
98 [label="X[4] <= 31258.007\nsquared_error = 65102114.487\nsamples = 3\nvalue = 577770.687"] ;
97 -> 98 ;
99 [label="X[2] <= 5.701\nsquared_error = 4831804.413\nsamples = 2\nvalue = 583333.102"] ;
98 -> 99 ;
100 [label="squared_error = 0.0\nsamples = 1\nvalue = 585531.238"] ;
99 -> 100 ;
101 [label="squared_error = 0.0\nsamples = 1\nvalue = 581134.965"] ;
99 -> 101 ;
102 [label="squared_error = -0.0\nsamples = 1\nvalue = 566645.858"] ;
98 -> 102 ;
103 [label="X[2] <= 5.745\nsquared_error = 134674422.812\nsamples = 2\nvalue = 681961.826"] ;
97 -> 103 ;
104 [label="squared_error = 0.0\nsamples = 1\nvalue = 670356.895"] ;
103 -> 104 ;
105 [label="squared_error = 0.0\nsamples = 1\nvalue = 693566.757"] ;
103 -> 105 ;
106 [label="X[0] <= 46210.682\nsquared_error = 12177806679.873\nsamples = 34\nvalue = 682481.435"] ;
82 -> 106 ;
107 [label="X[2] <= 7.25\nsquared_error = 3446541512.406\nsamples = 2\nvalue = 485613.436"] ;
106 -> 107 ;
108 [label="squared_error = 0.0\nsamples = 1\nvalue = 426906.183"] ;
107 -> 108 ;
109 [label="squared_error = -0.0\nsamples = 1\nvalue = 544320.688"] ;
107 -> 109 ;
110 [label="X[0] <= 55437.377\nsquared_error = 10149803098.175\nsamples = 32\nvalue = 694785.685"] ;
106 -> 110 ;
111 [label="X[0] <= 53614.781\nsquared_error = 9277354057.92\nsamples = 30\nvalue = 704559.844"] ;
110 -> 111 ;
112 [label="X[1] <= 4.73\nsquared_error = 8755800375.644\nsamples = 21\nvalue = 676005.033"] ;
111 -> 112 ;
113 [label="X[2] <= 7.576\nsquared_error = 2712076735.787\nsamples = 3\nvalue = 564384.061"] ;
112 -> 113 ;
114 [label="squared_error = 0.0\nsamples = 1\nvalue = 491085.826"] ;
113 -> 114 ;
115 [label="X[4] <= 30391.974\nsquared_error = 38641706.651\nsamples = 2\nvalue = 601033.178"] ;
113 -> 115 ;
116 [label="squared_error = 0.0\nsamples = 1\nvalue = 594816.933"] ;
115 -> 116 ;
117 [label="squared_error = 0.0\nsamples = 1\nvalue = 607249.423"] ;
115 -> 117 ;
118 [label="X[1] <= 5.352\nsquared_error = 7340457352.402\nsamples = 18\nvalue = 694608.529"] ;
112 -> 118 ;
119 [label="X[0] <= 50605.332\nsquared_error = 6655239176.393\nsamples = 9\nvalue = 740005.497"] ;
118 -> 119 ;
120 [label="X[3] <= 2.63\nsquared_error = 4367895036.641\nsamples = 4\nvalue = 675525.908"] ;
119 -> 120 ;
121 [label="squared_error = 0.0\nsamples = 1\nvalue = 780934.038"] ;
120 -> 121 ;
122 [label="X[4] <= 31992.107\nsquared_error = 885693876.065\nsamples = 3\nvalue = 640389.865"] ;
120 -> 122 ;
123 [label="squared_error = 0.0\nsamples = 1\nvalue = 602209.575"] ;
122 -> 123 ;
124 [label="X[3] <= 4.585\nsquared_error = 235239936.389\nsamples = 2\nvalue = 659480.009"] ;
122 -> 124 ;
125 [label="squared_error = 0.0\nsamples = 1\nvalue = 674817.543"] ;
124 -> 125 ;
126 [label="squared_error = -0.0\nsamples = 1\nvalue = 644142.476"] ;
124 -> 126 ;
127 [label="X[3] <= 4.145\nsquared_error = 2498145351.38\nsamples = 5\nvalue = 791589.169"] ;
119 -> 127 ;
128 [label="X[1] <= 5.06\nsquared_error = 30073879.121\nsamples = 2\nvalue = 731314.568"] ;
127 -> 128 ;
129 [label="squared_error = 0.0\nsamples = 1\nvalue = 725830.602"] ;
128 -> 129 ;
130 [label="squared_error = 0.0\nsamples = 1\nvalue = 736798.533"] ;
128 -> 130 ;
131 [label="X[4] <= 32607.2\nsquared_error = 106829052.547\nsamples = 3\nvalue = 831772.236"] ;
127 -> 131 ;
132 [label="X[3] <= 5.245\nsquared_error = 16720138.702\nsamples = 2\nvalue = 838688.966"] ;
131 -> 132 ;
133 [label="squared_error = 0.0\nsamples = 1\nvalue = 834599.939"] ;
132 -> 133 ;
134 [label="squared_error = -0.0\nsamples = 1\nvalue = 842777.992"] ;
132 -> 134 ;
135 [label="squared_error = -0.0\nsamples = 1\nvalue = 817938.777"] ;
131 -> 135 ;
136 [label="X[4] <= 28650.434\nsquared_error = 3903905995.927\nsamples = 9\nvalue = 649211.56"] ;
118 -> 136 ;
137 [label="X[2] <= 7.067\nsquared_error = 441617052.821\nsamples = 3\nvalue = 709837.141"] ;
136 -> 137 ;
138 [label="squared_error = 0.0\nsamples = 1\nvalue = 681089.919"] ;
137 -> 138 ;
139 [label="X[3] <= 3.74\nsquared_error = 42623487.88\nsamples = 2\nvalue = 724210.752"] ;
137 -> 139 ;
140 [label="squared_error = 0.0\nsamples = 1\nvalue = 730739.419"] ;
139 -> 140 ;
141 [label="squared_error = 0.0\nsamples = 1\nvalue = 717682.086"] ;
139 -> 141 ;
142 [label="X[0] <= 51353.297\nsquared_error = 2878454641.853\nsamples = 6\nvalue = 618898.769"] ;
136 -> 142 ;
143 [label="X[1] <= 5.982\nsquared_error = 120679635.074\nsamples = 2\nvalue = 682946.073"] ;
142 -> 143 ;
144 [label="squared_error = 0.0\nsamples = 1\nvalue = 693931.502"] ;
143 -> 144 ;
145 [label="squared_error = -0.0\nsamples = 1\nvalue = 671960.645"] ;
143 -> 145 ;
146 [label="X[2] <= 6.517\nsquared_error = 1180799295.329\nsamples = 4\nvalue = 586875.117"] ;
142 -> 146 ;
147 [label="squared_error = 0.0\nsamples = 1\nvalue = 642855.17"] ;
146 -> 147 ;
148 [label="X[2] <= 7.022\nsquared_error = 181614063.46\nsamples = 3\nvalue = 568215.1"] ;
146 -> 148 ;
149 [label="squared_error = 0.0\nsamples = 1\nvalue = 549167.94"] ;
148 -> 149 ;
150 [label="X[3] <= 4.235\nsquared_error = 325363.143\nsamples = 2\nvalue = 577738.68"] ;
148 -> 150 ;
151 [label="squared_error = 0.0\nsamples = 1\nvalue = 578309.086"] ;
150 -> 151 ;
152 [label="squared_error = 0.0\nsamples = 1\nvalue = 577168.274"] ;
150 -> 152 ;
153 [label="X[0] <= 54072.938\nsquared_error = 4152489830.669\nsamples = 9\nvalue = 771187.736"] ;
111 -> 153 ;
154 [label="squared_error = 0.0\nsamples = 1\nvalue = 914378.334"] ;
153 -> 154 ;
155 [label="X[3] <= 3.72\nsquared_error = 1788239689.696\nsamples = 8\nvalue = 753288.911"] ;
153 -> 155 ;
156 [label="X[0] <= 54839.473\nsquared_error = 110122703.955\nsamples = 2\nvalue = 806883.374"] ;
155 -> 156 ;
157 [label="squared_error = 0.0\nsamples = 1\nvalue = 817377.311"] ;
156 -> 157 ;
158 [label="squared_error = 0.0\nsamples = 1\nvalue = 796389.438"] ;
156 -> 158 ;
159 [label="X[0] <= 55163.584\nsquared_error = 1071004679.308\nsamples = 6\nvalue = 735424.09"] ;
155 -> 159 ;
160 [label="X[1] <= 5.593\nsquared_error = 493475597.06\nsamples = 5\nvalue = 746911.257"] ;
159 -> 160 ;
161 [label="X[4] <= 27347.189\nsquared_error = 43790094.248\nsamples = 3\nvalue = 730959.67"] ;
160 -> 161 ;
162 [label="squared_error = 0.0\nsamples = 1\nvalue = 722115.124"] ;
161 -> 162 ;
163 [label="X[1] <= 4.874\nsquared_error = 7015647.637\nsamples = 2\nvalue = 735381.943"] ;
161 -> 163 ;
164 [label="squared_error = 0.0\nsamples = 1\nvalue = 738030.65"] ;
163 -> 164 ;
165 [label="squared_error = -0.0\nsamples = 1\nvalue = 732733.236"] ;
163 -> 165 ;
166 [label="X[3] <= 5.035\nsquared_error = 213804666.551\nsamples = 2\nvalue = 770838.637"] ;
160 -> 166 ;
167 [label="squared_error = 0.0\nsamples = 1\nvalue = 756216.576"] ;
166 -> 167 ;
168 [label="squared_error = 0.0\nsamples = 1\nvalue = 785460.698"] ;
166 -> 168 ;
169 [label="squared_error = -0.0\nsamples = 1\nvalue = 677988.255"] ;
159 -> 169 ;
170 [label="X[1] <= 4.496\nsquared_error = 308336426.052\nsamples = 2\nvalue = 548173.307"] ;
110 -> 170 ;
171 [label="squared_error = 0.0\nsamples = 1\nvalue = 565732.818"] ;
170 -> 171 ;
172 [label="squared_error = 0.0\nsamples = 1\nvalue = 530613.796"] ;
170 -> 172 ;
173 [label="X[2] <= 6.66\nsquared_error = 49702803915.365\nsamples = 255\nvalue = 825792.391"] ;
3 -> 173 ;
174 [label="X[1] <= 5.632\nsquared_error = 39507147615.0\nsamples = 98\nvalue = 678131.916"] ;
173 -> 174 ;
175 [label="X[2] <= 5.854\nsquared_error = 32858703255.552\nsamples = 72\nvalue = 614084.973"] ;
174 -> 175 ;
176 [label="X[4] <= 21154.104\nsquared_error = 27918522627.244\nsamples = 24\nvalue = 474760.366"] ;
175 -> 176 ;
177 [label="X[2] <= 4.653\nsquared_error = 14702633268.122\nsamples = 7\nvalue = 328836.944"] ;
176 -> 177 ;
178 [label="squared_error = 0.0\nsamples = 1\nvalue = 88591.77"] ;
177 -> 178 ;
179 [label="X[4] <= 8167.013\nsquared_error = 5930177529.679\nsamples = 6\nvalue = 368877.807"] ;
177 -> 179 ;
180 [label="squared_error = 0.0\nsamples = 1\nvalue = 231189.821"] ;
179 -> 180 ;
181 [label="X[2] <= 5.561\nsquared_error = 2566297493.235\nsamples = 5\nvalue = 396415.404"] ;
179 -> 181 ;
182 [label="X[3] <= 3.37\nsquared_error = 28048126.526\nsamples = 3\nvalue = 358806.78"] ;
181 -> 182 ;
183 [label="X[3] <= 2.87\nsquared_error = 4021294.469\nsamples = 2\nvalue = 355245.371"] ;
182 -> 183 ;
184 [label="squared_error = 0.0\nsamples = 1\nvalue = 353240.055"] ;
183 -> 184 ;
185 [label="squared_error = 0.0\nsamples = 1\nvalue = 357250.688"] ;
183 -> 185 ;
186 [label="squared_error = -0.0\nsamples = 1\nvalue = 365929.597"] ;
182 -> 186 ;
187 [label="X[0] <= 61455.814\nsquared_error = 1069639291.509\nsamples = 2\nvalue = 452828.34"] ;
181 -> 187 ;
188 [label="squared_error = 0.0\nsamples = 1\nvalue = 420123.0"] ;
187 -> 188 ;
189 [label="squared_error = 0.0\nsamples = 1\nvalue = 485533.68"] ;
187 -> 189 ;
190 [label="X[3] <= 2.235\nsquared_error = 20982046748.454\nsamples = 17\nvalue = 534846.481"] ;
176 -> 190 ;
191 [label="X[3] <= 2.19\nsquared_error = 1468368276.766\nsamples = 3\nvalue = 339467.259"] ;
190 -> 191 ;
192 [label="X[4] <= 31460.753\nsquared_error = 1613284.384\nsamples = 2\nvalue = 312381.352"] ;
191 -> 192 ;
193 [label="squared_error = 0.0\nsamples = 1\nvalue = 313651.503"] ;
192 -> 193 ;
194 [label="squared_error = -0.0\nsamples = 1\nvalue = 311111.201"] ;
192 -> 194 ;
195 [label="squared_error = 0.0\nsamples = 1\nvalue = 393639.074"] ;
191 -> 195 ;
196 [label="X[0] <= 56699.27\nsquared_error = 15230768388.379\nsamples = 14\nvalue = 576713.457"] ;
190 -> 196 ;
197 [label="squared_error = 0.0\nsamples = 1\nvalue = 239319.934"] ;
196 -> 197 ;
198 [label="X[3] <= 4.315\nsquared_error = 6972298204.857\nsamples = 13\nvalue = 602666.805"] ;
196 -> 198 ;
199 [label="X[4] <= 31426.082\nsquared_error = 3561361806.941\nsamples = 11\nvalue = 576029.365"] ;
198 -> 199 ;
200 [label="X[3] <= 2.34\nsquared_error = 2907665963.29\nsamples = 8\nvalue = 596610.637"] ;
199 -> 200 ;
201 [label="squared_error = 0.0\nsamples = 1\nvalue = 476971.456"] ;
200 -> 201 ;
202 [label="X[4] <= 26116.223\nsquared_error = 986143351.515\nsamples = 7\nvalue = 613701.949"] ;
200 -> 202 ;
203 [label="X[1] <= 5.213\nsquared_error = 1341021016.843\nsamples = 3\nvalue = 592196.964"] ;
202 -> 203 ;
204 [label="squared_error = 0.0\nsamples = 1\nvalue = 642646.439"] ;
203 -> 204 ;
205 [label="X[0] <= 59856.115\nsquared_error = 102669357.647\nsamples = 2\nvalue = 566972.226"] ;
203 -> 205 ;
206 [label="squared_error = 0.0\nsamples = 1\nvalue = 577104.815"] ;
205 -> 206 ;
207 [label="squared_error = 0.0\nsamples = 1\nvalue = 556839.637"] ;
205 -> 207 ;
208 [label="X[2] <= 5.114\nsquared_error = 113000589.822\nsamples = 4\nvalue = 629830.688"] ;
202 -> 208 ;
209 [label="squared_error = 0.0\nsamples = 1\nvalue = 647691.835"] ;
208 -> 209 ;
210 [label="X[2] <= 5.615\nsquared_error = 8880526.637\nsamples = 3\nvalue = 623876.972"] ;
208 -> 210 ;
211 [label="X[1] <= 5.048\nsquared_error = 10526.858\nsamples = 2\nvalue = 625983.333"] ;
210 -> 211 ;
212 [label="squared_error = 0.0\nsamples = 1\nvalue = 626085.933"] ;
211 -> 212 ;
213 [label="squared_error = -0.0\nsamples = 1\nvalue = 625880.732"] ;
211 -> 213 ;
214 [label="squared_error = 0.0\nsamples = 1\nvalue = 619664.251"] ;
210 -> 214 ;
215 [label="X[3] <= 2.695\nsquared_error = 1162793966.329\nsamples = 3\nvalue = 521145.973"] ;
199 -> 215 ;
216 [label="squared_error = 0.0\nsamples = 1\nvalue = 568977.073"] ;
215 -> 216 ;
217 [label="X[0] <= 61406.299\nsquared_error = 28330378.494\nsamples = 2\nvalue = 497230.423"] ;
215 -> 217 ;
218 [label="squared_error = 0.0\nsamples = 1\nvalue = 502553.052"] ;
217 -> 218 ;
219 [label="squared_error = 0.0\nsamples = 1\nvalue = 491907.794"] ;
217 -> 219 ;
220 [label="X[2] <= 5.457\nsquared_error = 365921643.615\nsamples = 2\nvalue = 749172.724"] ;
198 -> 220 ;
221 [label="squared_error = 0.0\nsamples = 1\nvalue = 768301.802"] ;
220 -> 221 ;
222 [label="squared_error = -0.0\nsamples = 1\nvalue = 730043.645"] ;
220 -> 222 ;
223 [label="X[4] <= 24507.959\nsquared_error = 20770284064.536\nsamples = 48\nvalue = 683747.276"] ;
175 -> 223 ;
224 [label="X[1] <= 5.109\nsquared_error = 20164746651.792\nsamples = 16\nvalue = 582511.164"] ;
223 -> 224 ;
225 [label="X[0] <= 67103.496\nsquared_error = 7923483909.212\nsamples = 10\nvalue = 506717.914"] ;
224 -> 225 ;
226 [label="X[3] <= 3.29\nsquared_error = 3333711213.068\nsamples = 9\nvalue = 483329.541"] ;
225 -> 226 ;
227 [label="X[0] <= 64826.994\nsquared_error = 162922483.26\nsamples = 2\nvalue = 420483.047"] ;
226 -> 227 ;
228 [label="squared_error = 0.0\nsamples = 1\nvalue = 433247.157"] ;
227 -> 228 ;
229 [label="squared_error = 0.0\nsamples = 1\nvalue = 407718.938"] ;
227 -> 229 ;
230 [label="X[0] <= 63879.959\nsquared_error = 2788747331.716\nsamples = 7\nvalue = 501285.682"] ;
226 -> 230 ;
231 [label="X[1] <= 5.017\nsquared_error = 83001786.824\nsamples = 4\nvalue = 469345.015"] ;
230 -> 231 ;
232 [label="X[2] <= 6.024\nsquared_error = 15397205.67\nsamples = 3\nvalue = 464464.65"] ;
231 -> 232 ;
233 [label="squared_error = 0.0\nsamples = 1\nvalue = 470008.138"] ;
232 -> 233 ;
234 [label="X[2] <= 6.38\nsquared_error = 48109.544\nsamples = 2\nvalue = 461692.905"] ;
232 -> 234 ;
235 [label="squared_error = 0.0\nsamples = 1\nvalue = 461473.567"] ;
234 -> 235 ;
236 [label="squared_error = 0.0\nsamples = 1\nvalue = 461912.244"] ;
234 -> 236 ;
237 [label="squared_error = -0.0\nsamples = 1\nvalue = 483986.109"] ;
231 -> 237 ;
238 [label="X[1] <= 4.865\nsquared_error = 3222432998.091\nsamples = 3\nvalue = 543873.24"] ;
230 -> 238 ;
239 [label="X[1] <= 4.733\nsquared_error = 202960871.67\nsamples = 2\nvalue = 504585.037"] ;
238 -> 239 ;
240 [label="squared_error = 0.0\nsamples = 1\nvalue = 518831.471"] ;
239 -> 240 ;
241 [label="squared_error = 0.0\nsamples = 1\nvalue = 490338.603"] ;
239 -> 241 ;
242 [label="squared_error = 0.0\nsamples = 1\nvalue = 622449.645"] ;
238 -> 242 ;
243 [label="squared_error = -0.001\nsamples = 1\nvalue = 717213.269"] ;
225 -> 243 ;
244 [label="X[3] <= 3.82\nsquared_error = 15035221388.955\nsamples = 6\nvalue = 708833.247"] ;
224 -> 244 ;
245 [label="X[4] <= 15825.819\nsquared_error = 7034108889.453\nsamples = 4\nvalue = 639076.601"] ;
244 -> 245 ;
246 [label="squared_error = 0.0\nsamples = 1\nvalue = 547794.571"] ;
245 -> 246 ;
247 [label="X[0] <= 60648.576\nsquared_error = 5675518999.227\nsamples = 3\nvalue = 669503.944"] ;
245 -> 247 ;
248 [label="squared_error = 0.0\nsamples = 1\nvalue = 566848.732"] ;
247 -> 248 ;
249 [label="X[2] <= 6.307\nsquared_error = 609709110.911\nsamples = 2\nvalue = 720831.55"] ;
247 -> 249 ;
250 [label="squared_error = 0.0\nsamples = 1\nvalue = 696139.261"] ;
249 -> 250 ;
251 [label="squared_error = -0.0\nsamples = 1\nvalue = 745523.838"] ;
249 -> 251 ;
252 [label="X[3] <= 4.34\nsquared_error = 1841508348.228\nsamples = 2\nvalue = 848346.539"] ;
244 -> 252 ;
253 [label="squared_error = 0.0\nsamples = 1\nvalue = 891259.338"] ;
252 -> 253 ;
254 [label="squared_error = -0.0\nsamples = 1\nvalue = 805433.74"] ;
252 -> 254 ;
255 [label="X[0] <= 65625.234\nsquared_error = 13386489961.796\nsamples = 32\nvalue = 734365.332"] ;
223 -> 255 ;
256 [label="X[3] <= 4.245\nsquared_error = 10464623693.731\nsamples = 28\nvalue = 710721.668"] ;
255 -> 256 ;
257 [label="X[4] <= 31404.786\nsquared_error = 7232181970.475\nsamples = 27\nvalue = 699351.249"] ;
256 -> 257 ;
258 [label="X[4] <= 25100.234\nsquared_error = 6148358647.765\nsamples = 17\nvalue = 669944.748"] ;
257 -> 258 ;
259 [label="X[4] <= 24895.318\nsquared_error = 3891790538.272\nsamples = 4\nvalue = 745413.557"] ;
258 -> 259 ;
260 [label="X[0] <= 60819.994\nsquared_error = 1156760314.569\nsamples = 2\nvalue = 690982.71"] ;
259 -> 260 ;
261 [label="squared_error = 0.0\nsamples = 1\nvalue = 724993.889"] ;
260 -> 261 ;
262 [label="squared_error = 0.0\nsamples = 1\nvalue = 656971.531"] ;
260 -> 262 ;
263 [label="X[3] <= 2.89\nsquared_error = 701386640.205\nsamples = 2\nvalue = 799844.403"] ;
259 -> 263 ;
264 [label="squared_error = 0.0\nsamples = 1\nvalue = 826328.108"] ;
263 -> 264 ;
265 [label="squared_error = -0.0\nsamples = 1\nvalue = 773360.698"] ;
263 -> 265 ;
266 [label="X[1] <= 5.563\nsquared_error = 4550990328.967\nsamples = 13\nvalue = 646723.577"] ;
258 -> 266 ;
267 [label="X[2] <= 5.895\nsquared_error = 3727852441.104\nsamples = 12\nvalue = 637106.336"] ;
266 -> 267 ;
268 [label="squared_error = 0.0\nsamples = 1\nvalue = 744132.704"] ;
267 -> 268 ;
269 [label="X[4] <= 29387.409\nsquared_error = 2930750423.541\nsamples = 11\nvalue = 627376.667"] ;
267 -> 269 ;
270 [label="X[0] <= 63792.154\nsquared_error = 1738151120.945\nsamples = 7\nvalue = 603130.309"] ;
269 -> 270 ;
271 [label="X[2] <= 6.402\nsquared_error = 963105810.436\nsamples = 5\nvalue = 586065.433"] ;
270 -> 271 ;
272 [label="X[0] <= 60860.623\nsquared_error = 6459197.395\nsamples = 2\nvalue = 554820.709"] ;
271 -> 272 ;
273 [label="squared_error = 0.0\nsamples = 1\nvalue = 552279.214"] ;
272 -> 273 ;
274 [label="squared_error = 0.0\nsamples = 1\nvalue = 557362.204"] ;
272 -> 274 ;
275 [label="X[2] <= 6.562\nsquared_error = 516167131.826\nsamples = 3\nvalue = 606895.249"] ;
271 -> 275 ;
276 [label="X[3] <= 3.3\nsquared_error = 173510383.962\nsamples = 2\nvalue = 621046.107"] ;
275 -> 276 ;
277 [label="squared_error = 0.0\nsamples = 1\nvalue = 607873.773"] ;
276 -> 277 ;
278 [label="squared_error = -0.0\nsamples = 1\nvalue = 634218.441"] ;
276 -> 278 ;
279 [label="squared_error = -0.0\nsamples = 1\nvalue = 578593.534"] ;
275 -> 279 ;
280 [label="X[3] <= 2.335\nsquared_error = 1127677147.862\nsamples = 2\nvalue = 645792.497"] ;
270 -> 280 ;
281 [label="squared_error = 0.0\nsamples = 1\nvalue = 612211.592"] ;
280 -> 281 ;
282 [label="squared_error = 0.0\nsamples = 1\nvalue = 679373.401"] ;
280 -> 282 ;
283 [label="X[3] <= 2.305\nsquared_error = 2188598429.298\nsamples = 4\nvalue = 669807.793"] ;
269 -> 283 ;
284 [label="squared_error = 0.0\nsamples = 1\nvalue = 592223.263"] ;
283 -> 284 ;
285 [label="X[4] <= 29528.388\nsquared_error = 242860450.157\nsamples = 3\nvalue = 695669.303"] ;
283 -> 285 ;
286 [label="squared_error = 0.0\nsamples = 1\nvalue = 716344.628"] ;
285 -> 286 ;
287 [label="X[2] <= 6.426\nsquared_error = 43688876.667\nsamples = 2\nvalue = 685331.64"] ;
285 -> 287 ;
288 [label="squared_error = 0.0\nsamples = 1\nvalue = 678721.884"] ;
287 -> 288 ;
289 [label="squared_error = 0.0\nsamples = 1\nvalue = 691941.397"] ;
287 -> 289 ;
290 [label="squared_error = -0.001\nsamples = 1\nvalue = 762130.462"] ;
266 -> 290 ;
291 [label="X[3] <= 2.475\nsquared_error = 5105514723.009\nsamples = 10\nvalue = 749342.299"] ;
257 -> 291 ;
292 [label="squared_error = 0.0\nsamples = 1\nvalue = 586381.547"] ;
291 -> 292 ;
293 [label="X[1] <= 5.382\nsquared_error = 2394250132.438\nsamples = 9\nvalue = 767449.049"] ;
291 -> 293 ;
294 [label="X[4] <= 31977.391\nsquared_error = 1342661821.071\nsamples = 7\nvalue = 748354.09"] ;
293 -> 294 ;
295 [label="squared_error = 0.0\nsamples = 1\nvalue = 822934.831"] ;
294 -> 295 ;
296 [label="X[4] <= 33488.631\nsquared_error = 484882985.437\nsamples = 6\nvalue = 735923.966"] ;
294 -> 296 ;
297 [label="X[4] <= 32244.446\nsquared_error = 222198481.696\nsamples = 5\nvalue = 743666.286"] ;
296 -> 297 ;
298 [label="squared_error = 0.0\nsamples = 1\nvalue = 769851.803"] ;
297 -> 298 ;
299 [label="X[0] <= 62571.783\nsquared_error = 63472689.872\nsamples = 4\nvalue = 737119.907"] ;
297 -> 299 ;
300 [label="X[4] <= 33354.793\nsquared_error = 9539555.189\nsamples = 3\nvalue = 741452.651"] ;
299 -> 300 ;
301 [label="X[0] <= 58996.889\nsquared_error = 761223.658\nsamples = 2\nvalue = 743577.748"] ;
300 -> 301 ;
302 [label="squared_error = 0.0\nsamples = 1\nvalue = 742705.267"] ;
301 -> 302 ;
303 [label="squared_error = 0.0\nsamples = 1\nvalue = 744450.229"] ;
301 -> 303 ;
304 [label="squared_error = -0.0\nsamples = 1\nvalue = 737202.458"] ;
300 -> 304 ;
305 [label="squared_error = 0.0\nsamples = 1\nvalue = 724121.673"] ;
299 -> 305 ;
306 [label="squared_error = 0.0\nsamples = 1\nvalue = 697212.367"] ;
296 -> 306 ;
307 [label="X[1] <= 5.473\nsquared_error = 332084321.588\nsamples = 2\nvalue = 834281.405"] ;
293 -> 307 ;
308 [label="squared_error = 0.0\nsamples = 1\nvalue = 816058.224"] ;
307 -> 308 ;
309 [label="squared_error = 0.0\nsamples = 1\nvalue = 852504.586"] ;
307 -> 309 ;
310 [label="squared_error = -0.005\nsamples = 1\nvalue = 1017722.998"] ;
256 -> 310 ;
311 [label="X[2] <= 6.004\nsquared_error = 2534274281.788\nsamples = 4\nvalue = 899870.98"] ;
255 -> 311 ;
312 [label="squared_error = 0.0\nsamples = 1\nvalue = 814879.206"] ;
311 -> 312 ;
313 [label="X[2] <= 6.497\nsquared_error = 168542743.561\nsamples = 3\nvalue = 928201.572"] ;
311 -> 313 ;
314 [label="X[1] <= 5.381\nsquared_error = 27058245.793\nsamples = 2\nvalue = 919526.783"] ;
313 -> 314 ;
315 [label="squared_error = 0.0\nsamples = 1\nvalue = 914325.029"] ;
314 -> 315 ;
316 [label="squared_error = 0.0\nsamples = 1\nvalue = 924728.537"] ;
314 -> 316 ;
317 [label="squared_error = 0.0\nsamples = 1\nvalue = 945551.149"] ;
313 -> 317 ;
318 [label="X[3] <= 4.42\nsquared_error = 15101968063.519\nsamples = 26\nvalue = 855492.682"] ;
174 -> 318 ;
319 [label="X[2] <= 6.44\nsquared_error = 10905155904.988\nsamples = 24\nvalue = 875551.025"] ;
318 -> 319 ;
320 [label="X[2] <= 5.17\nsquared_error = 6660282213.95\nsamples = 20\nvalue = 845768.323"] ;
319 -> 320 ;
321 [label="X[0] <= 65995.371\nsquared_error = 1224555805.359\nsamples = 2\nvalue = 708218.766"] ;
320 -> 321 ;
322 [label="squared_error = 0.0\nsamples = 1\nvalue = 673225.112"] ;
321 -> 322 ;
323 [label="squared_error = -0.0\nsamples = 1\nvalue = 743212.419"] ;
321 -> 323 ;
324 [label="X[4] <= 29525.244\nsquared_error = 4928464067.994\nsamples = 18\nvalue = 861051.607"] ;
320 -> 324 ;
325 [label="X[2] <= 6.108\nsquared_error = 3985392388.844\nsamples = 9\nvalue = 826384.228"] ;
324 -> 325 ;
326 [label="X[4] <= 26363.311\nsquared_error = 2163405877.659\nsamples = 6\nvalue = 798711.746"] ;
325 -> 326 ;
327 [label="squared_error = 0.0\nsamples = 1\nvalue = 729781.57"] ;
326 -> 327 ;
328 [label="X[0] <= 63537.564\nsquared_error = 1455758424.085\nsamples = 5\nvalue = 812497.782"] ;
326 -> 328 ;
329 [label="X[3] <= 2.87\nsquared_error = 181932473.904\nsamples = 4\nvalue = 794399.353"] ;
328 -> 329 ;
330 [label="X[4] <= 28612.41\nsquared_error = 5588920.572\nsamples = 2\nvalue = 781201.013"] ;
329 -> 330 ;
331 [label="squared_error = 0.0\nsamples = 1\nvalue = 778836.923"] ;
330 -> 331 ;
332 [label="squared_error = -0.0\nsamples = 1\nvalue = 783565.103"] ;
330 -> 332 ;
333 [label="X[1] <= 5.862\nsquared_error = 9883631.619\nsamples = 2\nvalue = 807597.694"] ;
329 -> 333 ;
334 [label="squared_error = 0.0\nsamples = 1\nvalue = 810741.519"] ;
333 -> 334 ;
335 [label="squared_error = 0.0\nsamples = 1\nvalue = 804453.87"] ;
333 -> 335 ;
336 [label="squared_error = -0.001\nsamples = 1\nvalue = 884891.496"] ;
328 -> 336 ;
337 [label="X[3] <= 3.675\nsquared_error = 3034768054.174\nsamples = 3\nvalue = 881729.191"] ;
325 -> 337 ;
338 [label="X[0] <= 62833.768\nsquared_error = 40604491.732\nsamples = 2\nvalue = 920508.685"] ;
337 -> 338 ;
339 [label="squared_error = 0.0\nsamples = 1\nvalue = 914136.52"] ;
338 -> 339 ;
340 [label="squared_error = -0.0\nsamples = 1\nvalue = 926880.851"] ;
338 -> 340 ;
341 [label="squared_error = -0.0\nsamples = 1\nvalue = 804170.202"] ;
337 -> 341 ;
342 [label="X[4] <= 32207.896\nsquared_error = 3467881355.738\nsamples = 9\nvalue = 895718.987"] ;
324 -> 342 ;
343 [label="X[3] <= 4.2\nsquared_error = 2091463307.093\nsamples = 5\nvalue = 934922.232"] ;
342 -> 343 ;
344 [label="X[1] <= 5.773\nsquared_error = 713532287.788\nsamples = 4\nvalue = 954419.908"] ;
343 -> 344 ;
345 [label="squared_error = 0.0\nsamples = 1\nvalue = 996924.691"] ;
344 -> 345 ;
346 [label="X[2] <= 6.088\nsquared_error = 148417904.088\nsamples = 3\nvalue = 940251.647"] ;
344 -> 346 ;
347 [label="squared_error = 0.0\nsamples = 1\nvalue = 924271.791"] ;
346 -> 347 ;
348 [label="X[0] <= 62891.252\nsquared_error = 31110001.128\nsamples = 2\nvalue = 948241.576"] ;
346 -> 348 ;
349 [label="squared_error = 0.0\nsamples = 1\nvalue = 953819.21"] ;
348 -> 349 ;
350 [label="squared_error = 0.0\nsamples = 1\nvalue = 942663.942"] ;
348 -> 350 ;
351 [label="squared_error = -0.0\nsamples = 1\nvalue = 856931.528"] ;
343 -> 351 ;
352 [label="X[3] <= 3.035\nsquared_error = 865888203.457\nsamples = 4\nvalue = 846714.93"] ;
342 -> 352 ;
353 [label="squared_error = 0.0\nsamples = 1\nvalue = 798254.225"] ;
352 -> 353 ;
354 [label="X[3] <= 4.085\nsquared_error = 110766525.895\nsamples = 3\nvalue = 862868.498"] ;
352 -> 354 ;
355 [label="squared_error = 0.0\nsamples = 1\nvalue = 849008.705"] ;
354 -> 355 ;
356 [label="X[3] <= 4.145\nsquared_error = 22079389.182\nsamples = 2\nvalue = 869798.394"] ;
354 -> 356 ;
357 [label="squared_error = 0.0\nsamples = 1\nvalue = 865099.523"] ;
356 -> 357 ;
358 [label="squared_error = 0.0\nsamples = 1\nvalue = 874497.265"] ;
356 -> 358 ;
359 [label="X[3] <= 3.885\nsquared_error = 5519244928.633\nsamples = 4\nvalue = 1024464.533"] ;
319 -> 359 ;
360 [label="X[4] <= 32491.443\nsquared_error = 1540296731.275\nsamples = 3\nvalue = 986324.342"] ;
359 -> 360 ;
361 [label="X[2] <= 6.567\nsquared_error = 373202559.151\nsamples = 2\nvalue = 960912.78"] ;
360 -> 361 ;
362 [label="squared_error = 0.0\nsamples = 1\nvalue = 980231.231"] ;
361 -> 362 ;
363 [label="squared_error = 0.0\nsamples = 1\nvalue = 941594.328"] ;
361 -> 363 ;
364 [label="squared_error = -0.0\nsamples = 1\nvalue = 1037147.467"] ;
360 -> 364 ;
365 [label="squared_error = -0.001\nsamples = 1\nvalue = 1138885.104"] ;
359 -> 365 ;
366 [label="X[4] <= 21660.758\nsquared_error = 2699124740.435\nsamples = 2\nvalue = 614792.57"] ;
318 -> 366 ;
367 [label="squared_error = 0.0\nsamples = 1\nvalue = 562839.469"] ;
366 -> 367 ;
368 [label="squared_error = 0.0\nsamples = 1\nvalue = 666745.671"] ;
366 -> 368 ;
369 [label="X[1] <= 5.13\nsquared_error = 33961719359.099\nsamples = 157\nvalue = 917962.624"] ;
173 -> 369 ;
370 [label="X[0] <= 62092.799\nsquared_error = 28847143505.962\nsamples = 51\nvalue = 803930.311"] ;
369 -> 370 ;
371 [label="X[4] <= 30950.178\nsquared_error = 23223432559.476\nsamples = 26\nvalue = 720619.546"] ;
370 -> 371 ;
372 [label="X[0] <= 58849.756\nsquared_error = 11488425120.462\nsamples = 17\nvalue = 651288.845"] ;
371 -> 372 ;
373 [label="X[0] <= 57630.684\nsquared_error = 4258622001.119\nsamples = 8\nvalue = 715627.054"] ;
372 -> 373 ;
374 [label="X[1] <= 4.893\nsquared_error = 3415281792.865\nsamples = 5\nvalue = 681160.996"] ;
373 -> 374 ;
375 [label="X[1] <= 3.544\nsquared_error = 534474257.697\nsamples = 3\nvalue = 726303.019"] ;
374 -> 375 ;
376 [label="squared_error = 0.0\nsamples = 1\nvalue = 696467.17"] ;
375 -> 376 ;
377 [label="X[0] <= 56923.404\nsquared_error = 134077949.65\nsamples = 2\nvalue = 741220.944"] ;
375 -> 377 ;
378 [label="squared_error = 0.0\nsamples = 1\nvalue = 729641.741"] ;
377 -> 378 ;
379 [label="squared_error = 0.0\nsamples = 1\nvalue = 752800.148"] ;
377 -> 379 ;
380 [label="X[4] <= 22831.026\nsquared_error = 94734658.709\nsamples = 2\nvalue = 613447.962"] ;
374 -> 380 ;
381 [label="squared_error = 0.0\nsamples = 1\nvalue = 603714.789"] ;
380 -> 381 ;
382 [label="squared_error = 0.0\nsamples = 1\nvalue = 623181.135"] ;
380 -> 382 ;
383 [label="X[0] <= 58558.008\nsquared_error = 384592925.468\nsamples = 3\nvalue = 773070.483"] ;
373 -> 383 ;
384 [label="X[2] <= 7.377\nsquared_error = 64523637.379\nsamples = 2\nvalue = 760001.872"] ;
383 -> 384 ;
385 [label="squared_error = 0.0\nsamples = 1\nvalue = 768034.533"] ;
384 -> 385 ;
386 [label="squared_error = 0.0\nsamples = 1\nvalue = 751969.212"] ;
384 -> 386 ;
387 [label="squared_error = -0.0\nsamples = 1\nvalue = 799207.704"] ;
383 -> 387 ;
388 [label="X[2] <= 7.279\nsquared_error = 10964804535.925\nsamples = 9\nvalue = 594099.326"] ;
372 -> 388 ;
389 [label="X[4] <= 26260.555\nsquared_error = 8146316416.981\nsamples = 2\nvalue = 459690.302"] ;
388 -> 389 ;
390 [label="squared_error = 0.0\nsamples = 1\nvalue = 549947.248"] ;
389 -> 390 ;
391 [label="squared_error = 0.0\nsamples = 1\nvalue = 369433.355"] ;
389 -> 391 ;
392 [label="X[0] <= 61300.363\nsquared_error = 5133675685.204\nsamples = 7\nvalue = 632501.905"] ;
388 -> 392 ;
393 [label="X[0] <= 59514.998\nsquared_error = 2129350058.328\nsamples = 5\nvalue = 597329.552"] ;
392 -> 393 ;
394 [label="squared_error = 0.0\nsamples = 1\nvalue = 512252.804"] ;
393 -> 394 ;
395 [label="X[1] <= 3.885\nsquared_error = 399795987.135\nsamples = 4\nvalue = 618598.739"] ;
393 -> 395 ;
396 [label="squared_error = 0.0\nsamples = 1\nvalue = 584061.247"] ;
395 -> 396 ;
397 [label="X[3] <= 3.695\nsquared_error = 2910959.675\nsamples = 3\nvalue = 630111.236"] ;
395 -> 397 ;
398 [label="squared_error = 0.0\nsamples = 1\nvalue = 627733.743"] ;
397 -> 398 ;
399 [label="X[2] <= 8.15\nsquared_error = 127086.99\nsamples = 2\nvalue = 631299.982"] ;
397 -> 399 ;
400 [label="squared_error = 0.0\nsamples = 1\nvalue = 630943.489"] ;
399 -> 400 ;
401 [label="squared_error = -0.0\nsamples = 1\nvalue = 631656.475"] ;
399 -> 401 ;
402 [label="X[3] <= 3.715\nsquared_error = 1819913401.459\nsamples = 2\nvalue = 720432.788"] ;
392 -> 402 ;
403 [label="squared_error = 0.0\nsamples = 1\nvalue = 677772.345"] ;
402 -> 403 ;
404 [label="squared_error = -0.0\nsamples = 1\nvalue = 763093.231"] ;
402 -> 404 ;
405 [label="X[0] <= 61122.285\nsquared_error = 19160153242.431\nsamples = 9\nvalue = 851577.536"] ;
371 -> 405 ;
406 [label="X[3] <= 3.425\nsquared_error = 11340358134.424\nsamples = 8\nvalue = 817888.082"] ;
405 -> 406 ;
407 [label="squared_error = 0.0\nsamples = 1\nvalue = 606863.141"] ;
406 -> 407 ;
408 [label="X[4] <= 31224.274\nsquared_error = 5689956177.855\nsamples = 7\nvalue = 848034.502"] ;
406 -> 408 ;
409 [label="squared_error = 0.0\nsamples = 1\nvalue = 986113.239"] ;
408 -> 409 ;
410 [label="X[0] <= 60827.586\nsquared_error = 2931055401.961\nsamples = 6\nvalue = 825021.379"] ;
408 -> 410 ;
411 [label="X[4] <= 33111.06\nsquared_error = 1349805727.5\nsamples = 5\nvalue = 844027.784"] ;
410 -> 411 ;
412 [label="X[4] <= 31671.757\nsquared_error = 554402158.418\nsamples = 4\nvalue = 859080.06"] ;
411 -> 412 ;
413 [label="X[3] <= 4.22\nsquared_error = 152680718.685\nsamples = 2\nvalue = 838662.552"] ;
412 -> 413 ;
414 [label="squared_error = 0.0\nsamples = 1\nvalue = 851018.956"] ;
413 -> 414 ;
415 [label="squared_error = 0.0\nsamples = 1\nvalue = 826306.148"] ;
413 -> 415 ;
416 [label="X[3] <= 5.21\nsquared_error = 122374326.61\nsamples = 2\nvalue = 879497.568"] ;
412 -> 416 ;
417 [label="squared_error = 0.0\nsamples = 1\nvalue = 868435.275"] ;
416 -> 417 ;
418 [label="squared_error = -0.0\nsamples = 1\nvalue = 890559.861"] ;
416 -> 418 ;
419 [label="squared_error = -0.0\nsamples = 1\nvalue = 783818.682"] ;
411 -> 419 ;
420 [label="squared_error = 0.001\nsamples = 1\nvalue = 729989.35"] ;
410 -> 420 ;
421 [label="squared_error = 0.001\nsamples = 1\nvalue = 1121093.175"] ;
405 -> 421 ;
422 [label="X[2] <= 7.227\nsquared_error = 19970448468.711\nsamples = 25\nvalue = 890573.508"] ;
370 -> 422 ;
423 [label="X[3] <= 4.445\nsquared_error = 5908859883.158\nsamples = 9\nvalue = 807661.804"] ;
422 -> 423 ;
424 [label="X[1] <= 4.999\nsquared_error = 3103285069.274\nsamples = 7\nvalue = 780422.013"] ;
423 -> 424 ;
425 [label="X[2] <= 6.815\nsquared_error = 2390991293.23\nsamples = 6\nvalue = 793675.088"] ;
424 -> 425 ;
426 [label="X[0] <= 64254.805\nsquared_error = 523088.898\nsamples = 2\nvalue = 855538.366"] ;
425 -> 426 ;
427 [label="squared_error = 0.0\nsamples = 1\nvalue = 854815.118"] ;
426 -> 427 ;
428 [label="squared_error = 0.0\nsamples = 1\nvalue = 856261.615"] ;
426 -> 428 ;
429 [label="X[3] <= 4.4\nsquared_error = 715926488.805\nsamples = 4\nvalue = 762743.449"] ;
425 -> 429 ;
430 [label="X[3] <= 4.255\nsquared_error = 57842104.839\nsamples = 3\nvalue = 777716.145"] ;
429 -> 430 ;
431 [label="X[1] <= 3.927\nsquared_error = 12786918.336\nsamples = 2\nvalue = 782681.903"] ;
430 -> 431 ;
432 [label="squared_error = 0.0\nsamples = 1\nvalue = 779106.022"] ;
431 -> 432 ;
433 [label="squared_error = -0.0\nsamples = 1\nvalue = 786257.783"] ;
431 -> 433 ;
434 [label="squared_error = 0.0\nsamples = 1\nvalue = 767784.63"] ;
430 -> 434 ;
435 [label="squared_error = 0.0\nsamples = 1\nvalue = 717825.36"] ;
429 -> 435 ;
436 [label="squared_error = 0.0\nsamples = 1\nvalue = 700903.564"] ;
424 -> 436 ;
437 [label="X[2] <= 7.161\nsquared_error = 4041774140.883\nsamples = 2\nvalue = 903001.071"] ;
423 -> 437 ;
438 [label="squared_error = 0.0\nsamples = 1\nvalue = 839426.122"] ;
437 -> 438 ;
439 [label="squared_error = -0.0\nsamples = 1\nvalue = 966576.02"] ;
437 -> 439 ;
440 [label="X[1] <= 3.963\nsquared_error = 21838182319.477\nsamples = 16\nvalue = 937211.341"] ;
422 -> 440 ;
441 [label="X[1] <= 3.795\nsquared_error = 13378504898.648\nsamples = 3\nvalue = 772055.094"] ;
440 -> 441 ;
442 [label="squared_error = 0.0\nsamples = 1\nvalue = 923508.126"] ;
441 -> 442 ;
443 [label="X[0] <= 65795.195\nsquared_error = 2864241814.487\nsamples = 2\nvalue = 696328.579"] ;
441 -> 443 ;
444 [label="squared_error = 0.0\nsamples = 1\nvalue = 749847.19"] ;
443 -> 444 ;
445 [label="squared_error = 0.0\nsamples = 1\nvalue = 642809.967"] ;
443 -> 445 ;
446 [label="X[4] <= 26387.936\nsquared_error = 16043219597.572\nsamples = 13\nvalue = 975324.321"] ;
440 -> 446 ;
447 [label="X[0] <= 66145.031\nsquared_error = 13739463205.999\nsamples = 5\nvalue = 899760.35"] ;
446 -> 447 ;
448 [label="X[3] <= 4.195\nsquared_error = 5344894566.81\nsamples = 4\nvalue = 851119.966"] ;
447 -> 448 ;
449 [label="squared_error = 0.0\nsamples = 1\nvalue = 729688.593"] ;
448 -> 449 ;
450 [label="X[3] <= 5.26\nsquared_error = 572935647.757\nsamples = 3\nvalue = 891597.091"] ;
448 -> 450 ;
451 [label="squared_error = 0.0\nsamples = 1\nvalue = 925394.135"] ;
450 -> 451 ;
452 [label="X[0] <= 64112.141\nsquared_error = 2723321.733\nsamples = 2\nvalue = 874698.569"] ;
450 -> 452 ;
453 [label="squared_error = 0.0\nsamples = 1\nvalue = 873048.32"] ;
452 -> 453 ;
454 [label="squared_error = 0.0\nsamples = 1\nvalue = 876348.818"] ;
452 -> 454 ;
455 [label="squared_error = 0.0\nsamples = 1\nvalue = 1094321.883"] ;
447 -> 455 ;
456 [label="X[4] <= 32375.287\nsquared_error = 11683936158.927\nsamples = 8\nvalue = 1022551.803"] ;
446 -> 456 ;
457 [label="X[2] <= 8.405\nsquared_error = 8651935898.566\nsamples = 6\nvalue = 1057775.415"] ;
456 -> 457 ;
458 [label="X[3] <= 6.07\nsquared_error = 2764735106.292\nsamples = 5\nvalue = 1093406.834"] ;
457 -> 458 ;
459 [label="X[1] <= 4.43\nsquared_error = 830995570.396\nsamples = 3\nvalue = 1132175.206"] ;
458 -> 459 ;
460 [label="squared_error = 0.0\nsamples = 1\nvalue = 1095879.443"] ;
459 -> 460 ;
461 [label="X[1] <= 4.84\nsquared_error = 258456573.558\nsamples = 2\nvalue = 1150323.087"] ;
459 -> 461 ;
462 [label="squared_error = 0.0\nsamples = 1\nvalue = 1134246.503"] ;
461 -> 462 ;
463 [label="squared_error = -0.0\nsamples = 1\nvalue = 1166399.672"] ;
461 -> 463 ;
464 [label="X[1] <= 4.924\nsquared_error = 29144476.913\nsamples = 2\nvalue = 1035254.277"] ;
458 -> 464 ;
465 [label="squared_error = 0.0\nsamples = 1\nvalue = 1029855.714"] ;
464 -> 465 ;
466 [label="squared_error = -0.0\nsamples = 1\nvalue = 1040652.839"] ;
464 -> 466 ;
467 [label="squared_error = 0.001\nsamples = 1\nvalue = 879618.322"] ;
457 -> 467 ;
468 [label="X[0] <= 66076.496\nsquared_error = 5891502524.295\nsamples = 2\nvalue = 916880.966"] ;
456 -> 468 ;
469 [label="squared_error = 0.0\nsamples = 1\nvalue = 840124.842"] ;
468 -> 469 ;
470 [label="squared_error = 0.0\nsamples = 1\nvalue = 993637.09"] ;
468 -> 470 ;
471 [label="X[0] <= 61008.457\nsquared_error = 27156043610.947\nsamples = 106\nvalue = 972827.227"] ;
369 -> 471 ;
472 [label="X[2] <= 8.066\nsquared_error = 14627578556.526\nsamples = 39\nvalue = 872311.49"] ;
471 -> 472 ;
473 [label="X[4] <= 26469.016\nsquared_error = 11905973951.796\nsamples = 32\nvalue = 845872.125"] ;
472 -> 473 ;
474 [label="X[1] <= 5.464\nsquared_error = 10133851140.471\nsamples = 10\nvalue = 768882.965"] ;
473 -> 474 ;
475 [label="X[3] <= 5.88\nsquared_error = 3221035309.879\nsamples = 4\nvalue = 666086.173"] ;
474 -> 475 ;
476 [label="X[1] <= 5.233\nsquared_error = 79848567.676\nsamples = 3\nvalue = 698547.17"] ;
475 -> 476 ;
477 [label="squared_error = 0.0\nsamples = 1\nvalue = 685922.385"] ;
476 -> 477 ;
478 [label="X[0] <= 59110.375\nsquared_error = 233959.733\nsamples = 2\nvalue = 704859.562"] ;
476 -> 478 ;
479 [label="squared_error = 0.0\nsamples = 1\nvalue = 704375.868"] ;
478 -> 479 ;
480 [label="squared_error = 0.0\nsamples = 1\nvalue = 705343.256"] ;
478 -> 480 ;
481 [label="squared_error = 0.0\nsamples = 1\nvalue = 568703.184"] ;
475 -> 481 ;
482 [label="X[0] <= 59385.75\nsquared_error = 3001083585.555\nsamples = 6\nvalue = 837414.159"] ;
474 -> 482 ;
483 [label="X[3] <= 5.58\nsquared_error = 1036046653.636\nsamples = 4\nvalue = 803575.539"] ;
482 -> 483 ;
484 [label="X[4] <= 19062.955\nsquared_error = 243955850.898\nsamples = 2\nvalue = 774979.741"] ;
483 -> 484 ;
485 [label="squared_error = 0.0\nsamples = 1\nvalue = 759360.655"] ;
484 -> 485 ;
486 [label="squared_error = 0.0\nsamples = 1\nvalue = 790598.827"] ;
484 -> 486 ;
487 [label="X[2] <= 7.467\nsquared_error = 192698082.692\nsamples = 2\nvalue = 832171.338"] ;
483 -> 487 ;
488 [label="squared_error = 0.0\nsamples = 1\nvalue = 846052.911"] ;
487 -> 488 ;
489 [label="squared_error = -0.0\nsamples = 1\nvalue = 818289.764"] ;
487 -> 489 ;
490 [label="X[4] <= 25801.866\nsquared_error = 60844409.146\nsamples = 2\nvalue = 905091.398"] ;
482 -> 490 ;
491 [label="squared_error = 0.0\nsamples = 1\nvalue = 912891.681"] ;
490 -> 491 ;
492 [label="squared_error = 0.0\nsamples = 1\nvalue = 897291.115"] ;
490 -> 492 ;
493 [label="X[2] <= 6.705\nsquared_error = 8792587909.852\nsamples = 22\nvalue = 880867.198"] ;
473 -> 493 ;
494 [label="squared_error = 0.0\nsamples = 1\nvalue = 592512.428"] ;
493 -> 494 ;
495 [label="X[2] <= 7.935\nsquared_error = 5063286177.342\nsamples = 21\nvalue = 894598.377"] ;
493 -> 495 ;
496 [label="X[3] <= 3.41\nsquared_error = 4125682485.324\nsamples = 19\nvalue = 905707.81"] ;
495 -> 496 ;
497 [label="X[3] <= 2.26\nsquared_error = 1700127965.218\nsamples = 9\nvalue = 862258.428"] ;
496 -> 497 ;
498 [label="squared_error = 0.0\nsamples = 1\nvalue = 939040.004"] ;
497 -> 498 ;
499 [label="X[2] <= 6.898\nsquared_error = 1083601876.14\nsamples = 8\nvalue = 852660.731"] ;
497 -> 499 ;
500 [label="X[1] <= 5.682\nsquared_error = 937403362.426\nsamples = 4\nvalue = 829637.263"] ;
499 -> 500 ;
501 [label="X[3] <= 3.23\nsquared_error = 49268436.315\nsamples = 2\nvalue = 802101.958"] ;
500 -> 501 ;
502 [label="squared_error = 0.0\nsamples = 1\nvalue = 795082.81"] ;
501 -> 502 ;
503 [label="squared_error = 0.0\nsamples = 1\nvalue = 809121.106"] ;
501 -> 503 ;
504 [label="X[3] <= 2.695\nsquared_error = 309152197.396\nsamples = 2\nvalue = 857172.569"] ;
500 -> 504 ;
505 [label="squared_error = 0.0\nsamples = 1\nvalue = 839589.844"] ;
504 -> 505 ;
506 [label="squared_error = -0.0\nsamples = 1\nvalue = 874755.293"] ;
504 -> 506 ;
507 [label="X[1] <= 5.757\nsquared_error = 169640291.979\nsamples = 4\nvalue = 875684.198"] ;
499 -> 507 ;
508 [label="X[0] <= 58666.645\nsquared_error = 32570217.042\nsamples = 3\nvalue = 882641.512"] ;
507 -> 508 ;
509 [label="X[4] <= 29367.039\nsquared_error = 19532.19\nsamples = 2\nvalue = 886676.186"] ;
508 -> 509 ;
510 [label="squared_error = 0.0\nsamples = 1\nvalue = 886536.428"] ;
509 -> 510 ;
511 [label="squared_error = -0.0\nsamples = 1\nvalue = 886815.944"] ;
509 -> 511 ;
512 [label="squared_error = 0.0\nsamples = 1\nvalue = 874572.163"] ;
508 -> 512 ;
513 [label="squared_error = -0.001\nsamples = 1\nvalue = 854812.258"] ;
507 -> 513 ;
514 [label="X[2] <= 7.423\nsquared_error = 3080460032.402\nsamples = 10\nvalue = 944812.255"] ;
496 -> 514 ;
515 [label="X[0] <= 60390.029\nsquared_error = 589137673.026\nsamples = 4\nvalue = 981309.185"] ;
514 -> 515 ;
516 [label="X[3] <= 4.24\nsquared_error = 149665623.358\nsamples = 3\nvalue = 993917.23"] ;
515 -> 516 ;
517 [label="squared_error = 0.0\nsamples = 1\nvalue = 1009809.984"] ;
516 -> 517 ;
518 [label="X[4] <= 33233.262\nsquared_error = 35063732.044\nsamples = 2\nvalue = 985970.854"] ;
516 -> 518 ;
519 [label="squared_error = 0.0\nsamples = 1\nvalue = 980049.39"] ;
518 -> 519 ;
520 [label="squared_error = 0.0\nsamples = 1\nvalue = 991892.317"] ;
518 -> 520 ;
521 [label="squared_error = -0.0\nsamples = 1\nvalue = 943485.047"] ;
515 -> 521 ;
522 [label="X[4] <= 29127.574\nsquared_error = 3261312825.688\nsamples = 6\nvalue = 920480.968"] ;
514 -> 522 ;
523 [label="X[3] <= 4.305\nsquared_error = 2001723872.171\nsamples = 2\nvalue = 850996.505"] ;
522 -> 523 ;
524 [label="squared_error = 0.0\nsamples = 1\nvalue = 895737.133"] ;
523 -> 524 ;
525 [label="squared_error = 0.0\nsamples = 1\nvalue = 806255.876"] ;
523 -> 525 ;
526 [label="X[2] <= 7.7\nsquared_error = 270039312.46\nsamples = 4\nvalue = 955223.2"] ;
522 -> 526 ;
527 [label="X[1] <= 5.552\nsquared_error = 84033377.205\nsamples = 2\nvalue = 940954.59"] ;
526 -> 527 ;
528 [label="squared_error = 0.0\nsamples = 1\nvalue = 950121.562"] ;
527 -> 528 ;
529 [label="squared_error = 0.0\nsamples = 1\nvalue = 931787.618"] ;
527 -> 529 ;
530 [label="X[1] <= 5.285\nsquared_error = 48858809.073\nsamples = 2\nvalue = 969491.809"] ;
526 -> 530 ;
531 [label="squared_error = 0.0\nsamples = 1\nvalue = 962501.902"] ;
530 -> 531 ;
532 [label="squared_error = -0.0\nsamples = 1\nvalue = 976481.717"] ;
530 -> 532 ;
533 [label="X[3] <= 4.755\nsquared_error = 1659426382.609\nsamples = 2\nvalue = 789058.766"] ;
495 -> 533 ;
534 [label="squared_error = 0.0\nsamples = 1\nvalue = 829794.823"] ;
533 -> 534 ;
535 [label="squared_error = -0.0\nsamples = 1\nvalue = 748322.708"] ;
533 -> 535 ;
536 [label="X[4] <= 30607.68\nsquared_error = 9265078574.955\nsamples = 7\nvalue = 993177.157"] ;
472 -> 536 ;
537 [label="X[1] <= 5.297\nsquared_error = 4025911919.686\nsamples = 5\nvalue = 946349.6"] ;
536 -> 537 ;
538 [label="squared_error = 0.0\nsamples = 1\nvalue = 830286.707"] ;
537 -> 538 ;
539 [label="X[3] <= 3.67\nsquared_error = 822828900.287\nsamples = 4\nvalue = 975365.323"] ;
537 -> 539 ;
540 [label="squared_error = 0.0\nsamples = 1\nvalue = 1015010.538"] ;
539 -> 540 ;
541 [label="X[0] <= 56325.371\nsquared_error = 398552716.059\nsamples = 3\nvalue = 962150.251"] ;
539 -> 541 ;
542 [label="squared_error = 0.0\nsamples = 1\nvalue = 936368.963"] ;
541 -> 542 ;
543 [label="X[4] <= 25079.95\nsquared_error = 99322964.294\nsamples = 2\nvalue = 975040.895"] ;
541 -> 543 ;
544 [label="squared_error = 0.0\nsamples = 1\nvalue = 965074.805"] ;
543 -> 544 ;
545 [label="squared_error = 0.0\nsamples = 1\nvalue = 985006.986"] ;
543 -> 545 ;
546 [label="X[0] <= 57353.258\nsquared_error = 3175819062.198\nsamples = 2\nvalue = 1110246.051"] ;
536 -> 546 ;
547 [label="squared_error = 0.0\nsamples = 1\nvalue = 1166600.457"] ;
546 -> 547 ;
548 [label="squared_error = 0.0\nsamples = 1\nvalue = 1053891.645"] ;
546 -> 548 ;
549 [label="X[4] <= 28600.527\nsquared_error = 25144318966.832\nsamples = 67\nvalue = 1031336.388"] ;
471 -> 549 ;
550 [label="X[2] <= 7.433\nsquared_error = 18911023914.505\nsamples = 39\nvalue = 956195.28"] ;
549 -> 550 ;
551 [label="X[2] <= 7.212\nsquared_error = 17205938096.547\nsamples = 19\nvalue = 875299.057"] ;
550 -> 551 ;
552 [label="X[0] <= 63395.096\nsquared_error = 10366237068.675\nsamples = 15\nvalue = 909443.99"] ;
551 -> 552 ;
553 [label="X[2] <= 6.859\nsquared_error = 3240796804.775\nsamples = 6\nvalue = 826687.362"] ;
552 -> 553 ;
554 [label="X[4] <= 19705.116\nsquared_error = 932766212.679\nsamples = 2\nvalue = 769568.897"] ;
553 -> 554 ;
555 [label="squared_error = 0.0\nsamples = 1\nvalue = 800110.119"] ;
554 -> 555 ;
556 [label="squared_error = 0.0\nsamples = 1\nvalue = 739027.676"] ;
554 -> 556 ;
557 [label="X[2] <= 7.048\nsquared_error = 1947922888.992\nsamples = 4\nvalue = 855246.594"] ;
553 -> 557 ;
558 [label="X[1] <= 5.909\nsquared_error = 58835234.528\nsamples = 2\nvalue = 886533.159"] ;
557 -> 558 ;
559 [label="squared_error = 0.0\nsamples = 1\nvalue = 878862.746"] ;
558 -> 559 ;
560 [label="squared_error = 0.0\nsamples = 1\nvalue = 894203.572"] ;
558 -> 560 ;
561 [label="X[4] <= 21433.741\nsquared_error = 1879312245.524\nsamples = 2\nvalue = 823960.029"] ;
557 -> 561 ;
562 [label="squared_error = 0.0\nsamples = 1\nvalue = 780608.994"] ;
561 -> 562 ;
563 [label="squared_error = 0.0\nsamples = 1\nvalue = 867311.064"] ;
561 -> 563 ;
564 [label="X[3] <= 4.435\nsquared_error = 7506908787.866\nsamples = 9\nvalue = 964615.076"] ;
552 -> 564 ;
565 [label="X[2] <= 6.851\nsquared_error = 4892031216.736\nsamples = 6\nvalue = 919570.616"] ;
564 -> 565 ;
566 [label="X[3] <= 2.86\nsquared_error = 92843371.84\nsamples = 3\nvalue = 854077.302"] ;
565 -> 566 ;
567 [label="squared_error = 0.0\nsamples = 1\nvalue = 841236.168"] ;
566 -> 567 ;
568 [label="X[4] <= 24541.391\nsquared_error = 15594009.019\nsamples = 2\nvalue = 860497.869"] ;
566 -> 568 ;
569 [label="squared_error = 0.0\nsamples = 1\nvalue = 864446.794"] ;
568 -> 569 ;
570 [label="squared_error = 0.0\nsamples = 1\nvalue = 856548.944"] ;
568 -> 570 ;
571 [label="X[3] <= 2.805\nsquared_error = 1112470797.794\nsamples = 3\nvalue = 985063.929"] ;
565 -> 571 ;
572 [label="squared_error = 0.0\nsamples = 1\nvalue = 1029869.764"] ;
571 -> 572 ;
573 [label="X[2] <= 6.923\nsquared_error = 163034099.677\nsamples = 2\nvalue = 962661.012"] ;
571 -> 573 ;
574 [label="squared_error = 0.0\nsamples = 1\nvalue = 949892.531"] ;
573 -> 574 ;
575 [label="squared_error = 0.0\nsamples = 1\nvalue = 975429.493"] ;
573 -> 575 ;
576 [label="X[1] <= 5.589\nsquared_error = 562643358.844\nsamples = 3\nvalue = 1054703.997"] ;
564 -> 576 ;
577 [label="X[4] <= 24471.431\nsquared_error = 1351500.904\nsamples = 2\nvalue = 1037944.786"] ;
576 -> 577 ;
578 [label="squared_error = 0.0\nsamples = 1\nvalue = 1036782.245"] ;
577 -> 578 ;
579 [label="squared_error = -0.0\nsamples = 1\nvalue = 1039107.326"] ;
577 -> 579 ;
580 [label="squared_error = 0.0\nsamples = 1\nvalue = 1088222.421"] ;
576 -> 580 ;
581 [label="X[0] <= 64722.107\nsquared_error = 22087642353.343\nsamples = 4\nvalue = 747255.557"] ;
551 -> 581 ;
582 [label="X[3] <= 5.085\nsquared_error = 6078309661.372\nsamples = 3\nvalue = 823694.88"] ;
581 -> 582 ;
583 [label="X[2] <= 7.386\nsquared_error = 106468939.208\nsamples = 2\nvalue = 768889.176"] ;
582 -> 583 ;
584 [label="squared_error = 0.0\nsamples = 1\nvalue = 779207.555"] ;
583 -> 584 ;
585 [label="squared_error = 0.0\nsamples = 1\nvalue = 758570.797"] ;
583 -> 585 ;
586 [label="squared_error = -0.0\nsamples = 1\nvalue = 933306.288"] ;
582 -> 586 ;
587 [label="squared_error = -0.0\nsamples = 1\nvalue = 517937.59"] ;
581 -> 587 ;
588 [label="X[1] <= 5.856\nsquared_error = 8407726948.897\nsamples = 20\nvalue = 1033046.692"] ;
550 -> 588 ;
589 [label="X[4] <= 24582.771\nsquared_error = 7043362896.75\nsamples = 17\nvalue = 1015397.397"] ;
588 -> 589 ;
590 [label="X[0] <= 64392.924\nsquared_error = 5065896610.884\nsamples = 9\nvalue = 971876.622"] ;
589 -> 590 ;
591 [label="X[1] <= 5.63\nsquared_error = 3985155916.052\nsamples = 3\nvalue = 895218.862"] ;
590 -> 591 ;
592 [label="X[4] <= 18762.309\nsquared_error = 128041332.42\nsamples = 2\nvalue = 851061.218"] ;
591 -> 592 ;
593 [label="squared_error = 0.0\nsamples = 1\nvalue = 862376.753"] ;
592 -> 593 ;
594 [label="squared_error = 0.0\nsamples = 1\nvalue = 839745.683"] ;
592 -> 594 ;
595 [label="squared_error = 0.0\nsamples = 1\nvalue = 983534.15"] ;
591 -> 595 ;
596 [label="X[3] <= 5.75\nsquared_error = 1198957846.324\nsamples = 6\nvalue = 1010205.502"] ;
590 -> 596 ;
597 [label="X[4] <= 20383.425\nsquared_error = 4059439.208\nsamples = 2\nvalue = 1053533.871"] ;
596 -> 597 ;
598 [label="squared_error = 0.0\nsamples = 1\nvalue = 1055548.676"] ;
597 -> 598 ;
599 [label="squared_error = -0.0\nsamples = 1\nvalue = 1051519.066"] ;
597 -> 599 ;
600 [label="X[4] <= 23782.542\nsquared_error = 388396397.359\nsamples = 4\nvalue = 988541.318"] ;
596 -> 600 ;
601 [label="X[4] <= 20728.922\nsquared_error = 47487485.43\nsamples = 3\nvalue = 999385.376"] ;
600 -> 601 ;
602 [label="X[0] <= 65443.896\nsquared_error = 46273.611\nsamples = 2\nvalue = 1004256.548"] ;
601 -> 602 ;
603 [label="squared_error = 0.0\nsamples = 1\nvalue = 1004041.435"] ;
602 -> 603 ;
604 [label="squared_error = 0.0\nsamples = 1\nvalue = 1004471.661"] ;
602 -> 604 ;
605 [label="squared_error = -0.0\nsamples = 1\nvalue = 989643.031"] ;
601 -> 605 ;
606 [label="squared_error = 0.001\nsamples = 1\nvalue = 956009.144"] ;
600 -> 606 ;
607 [label="X[4] <= 27251.238\nsquared_error = 4740030418.253\nsamples = 8\nvalue = 1064358.269"] ;
589 -> 607 ;
608 [label="X[4] <= 25296.725\nsquared_error = 1727073479.495\nsamples = 5\nvalue = 1107888.017"] ;
607 -> 608 ;
609 [label="squared_error = 0.0\nsamples = 1\nvalue = 1031146.755"] ;
608 -> 609 ;
610 [label="X[2] <= 7.919\nsquared_error = 318460151.651\nsamples = 4\nvalue = 1127073.333"] ;
608 -> 610 ;
611 [label="X[1] <= 5.618\nsquared_error = 112458114.969\nsamples = 2\nvalue = 1143266.842"] ;
610 -> 611 ;
612 [label="squared_error = 0.0\nsamples = 1\nvalue = 1153871.47"] ;
611 -> 612 ;
613 [label="squared_error = -0.0\nsamples = 1\nvalue = 1132662.215"] ;
611 -> 613 ;
614 [label="X[3] <= 3.765\nsquared_error = 2704.184\nsamples = 2\nvalue = 1110879.824"] ;
610 -> 614 ;
615 [label="squared_error = 0.0\nsamples = 1\nvalue = 1110931.826"] ;
614 -> 615 ;
616 [label="squared_error = 0.0\nsamples = 1\nvalue = 1110827.822"] ;
614 -> 616 ;
617 [label="X[3] <= 5.055\nsquared_error = 1340118583.357\nsamples = 3\nvalue = 991808.688"] ;
607 -> 617 ;
618 [label="X[2] <= 7.782\nsquared_error = 161918439.396\nsamples = 2\nvalue = 1016629.777"] ;
617 -> 618 ;
619 [label="squared_error = 0.0\nsamples = 1\nvalue = 1029354.495"] ;
618 -> 619 ;
620 [label="squared_error = 0.0\nsamples = 1\nvalue = 1003905.06"] ;
618 -> 620 ;
621 [label="squared_error = -0.0\nsamples = 1\nvalue = 942166.509"] ;
617 -> 621 ;
622 [label="X[3] <= 3.79\nsquared_error = 4371435438.85\nsamples = 3\nvalue = 1133059.365"] ;
588 -> 622 ;
623 [label="squared_error = 0.0\nsamples = 1\nvalue = 1042144.231"] ;
622 -> 623 ;
624 [label="X[2] <= 7.898\nsquared_error = 357982017.656\nsamples = 2\nvalue = 1178516.931"] ;
622 -> 624 ;
625 [label="squared_error = 0.0\nsamples = 1\nvalue = 1197437.344"] ;
624 -> 625 ;
626 [label="squared_error = 0.0\nsamples = 1\nvalue = 1159596.519"] ;
624 -> 626 ;
627 [label="X[2] <= 7.877\nsquared_error = 15008189061.422\nsamples = 28\nvalue = 1135997.216"] ;
549 -> 627 ;
628 [label="X[0] <= 65569.645\nsquared_error = 6671484795.181\nsamples = 17\nvalue = 1076052.148"] ;
627 -> 628 ;
629 [label="X[4] <= 31579.031\nsquared_error = 3476877777.256\nsamples = 12\nvalue = 1036116.872"] ;
628 -> 629 ;
630 [label="X[3] <= 3.71\nsquared_error = 1511729372.351\nsamples = 9\nvalue = 1009743.312"] ;
629 -> 630 ;
631 [label="X[2] <= 6.769\nsquared_error = 325010696.096\nsamples = 2\nvalue = 1065717.319"] ;
630 -> 631 ;
632 [label="squared_error = 0.0\nsamples = 1\nvalue = 1047689.266"] ;
631 -> 632 ;
633 [label="squared_error = 0.0\nsamples = 1\nvalue = 1083745.372"] ;
631 -> 633 ;
634 [label="X[0] <= 62581.264\nsquared_error = 699861046.226\nsamples = 7\nvalue = 993750.739"] ;
630 -> 634 ;
635 [label="X[2] <= 7.575\nsquared_error = 180521642.208\nsamples = 2\nvalue = 958493.153"] ;
634 -> 635 ;
636 [label="squared_error = 0.0\nsamples = 1\nvalue = 945057.318"] ;
635 -> 636 ;
637 [label="squared_error = 0.0\nsamples = 1\nvalue = 971928.987"] ;
635 -> 637 ;
638 [label="X[0] <= 64566.379\nsquared_error = 211462271.055\nsamples = 5\nvalue = 1007853.773"] ;
634 -> 638 ;
639 [label="X[0] <= 63159.869\nsquared_error = 42863397.284\nsamples = 4\nvalue = 1014509.064"] ;
638 -> 639 ;
640 [label="X[2] <= 7.058\nsquared_error = 1982313.236\nsamples = 2\nvalue = 1010501.748"] ;
639 -> 640 ;
641 [label="squared_error = 0.0\nsamples = 1\nvalue = 1011909.694"] ;
640 -> 641 ;
642 [label="squared_error = 0.0\nsamples = 1\nvalue = 1009093.802"] ;
640 -> 642 ;
643 [label="X[0] <= 63645.697\nsquared_error = 51627323.918\nsamples = 2\nvalue = 1018516.379"] ;
639 -> 643 ;
644 [label="squared_error = 0.0\nsamples = 1\nvalue = 1025701.595"] ;
643 -> 644 ;
645 [label="squared_error = 0.0\nsamples = 1\nvalue = 1011331.164"] ;
643 -> 645 ;
646 [label="squared_error = -0.001\nsamples = 1\nvalue = 981232.612"] ;
638 -> 646 ;
647 [label="X[3] <= 4.565\nsquared_error = 1025547244.504\nsamples = 3\nvalue = 1115237.551"] ;
629 -> 647 ;
648 [label="X[4] <= 32379.416\nsquared_error = 71479790.542\nsamples = 2\nvalue = 1137349.697"] ;
647 -> 648 ;
649 [label="squared_error = 0.0\nsamples = 1\nvalue = 1145804.269"] ;
648 -> 649 ;
650 [label="squared_error = -0.0\nsamples = 1\nvalue = 1128895.125"] ;
648 -> 650 ;
651 [label="squared_error = 0.0\nsamples = 1\nvalue = 1071013.257"] ;
647 -> 651 ;
652 [label="X[0] <= 66289.012\nsquared_error = 1324759134.355\nsamples = 5\nvalue = 1171896.811"] ;
628 -> 652 ;
653 [label="X[3] <= 6.145\nsquared_error = 298481370.877\nsamples = 3\nvalue = 1144715.654"] ;
652 -> 653 ;
654 [label="X[1] <= 5.75\nsquared_error = 102885465.892\nsamples = 2\nvalue = 1133994.389"] ;
653 -> 654 ;
655 [label="squared_error = 0.0\nsamples = 1\nvalue = 1123851.141"] ;
654 -> 655 ;
656 [label="squared_error = 0.0\nsamples = 1\nvalue = 1144137.636"] ;
654 -> 656 ;
657 [label="squared_error = -0.0\nsamples = 1\nvalue = 1166158.185"] ;
653 -> 657 ;
658 [label="X[2] <= 7.188\nsquared_error = 93618438.778\nsamples = 2\nvalue = 1212668.546"] ;
652 -> 658 ;
659 [label="squared_error = 0.0\nsamples = 1\nvalue = 1222344.208"] ;
658 -> 659 ;
660 [label="squared_error = 0.0\nsamples = 1\nvalue = 1202992.884"] ;
658 -> 660 ;
661 [label="X[1] <= 5.871\nsquared_error = 13756122964.037\nsamples = 11\nvalue = 1228639.593"] ;
627 -> 661 ;
662 [label="X[1] <= 5.627\nsquared_error = 7243228485.951\nsamples = 9\nvalue = 1267611.572"] ;
661 -> 662 ;
663 [label="X[0] <= 63117.053\nsquared_error = 538076519.11\nsamples = 4\nvalue = 1318831.4"] ;
662 -> 663 ;
664 [label="X[0] <= 62063.943\nsquared_error = 76549193.982\nsamples = 2\nvalue = 1340124.187"] ;
663 -> 664 ;
665 [label="squared_error = 0.0\nsamples = 1\nvalue = 1348873.427"] ;
664 -> 665 ;
666 [label="squared_error = 0.001\nsamples = 1\nvalue = 1331374.948"] ;
664 -> 666 ;
667 [label="X[2] <= 8.52\nsquared_error = 92838228.656\nsamples = 2\nvalue = 1297538.612"] ;
663 -> 667 ;
668 [label="squared_error = 0.0\nsamples = 1\nvalue = 1287903.352"] ;
667 -> 668 ;
669 [label="squared_error = 0.001\nsamples = 1\nvalue = 1307173.872"] ;
667 -> 669 ;
670 [label="X[3] <= 3.64\nsquared_error = 8829552178.654\nsamples = 5\nvalue = 1226635.71"] ;
662 -> 670 ;
671 [label="squared_error = 0.0\nsamples = 1\nvalue = 1364029.168"] ;
670 -> 671 ;
672 [label="X[4] <= 32204.308\nsquared_error = 5137889444.527\nsamples = 4\nvalue = 1192287.345"] ;
670 -> 672 ;
673 [label="X[1] <= 5.761\nsquared_error = 769352692.784\nsamples = 3\nvalue = 1231278.262"] ;
672 -> 673 ;
674 [label="X[0] <= 65157.227\nsquared_error = 36215746.659\nsamples = 2\nvalue = 1250581.227"] ;
673 -> 674 ;
675 [label="squared_error = 0.0\nsamples = 1\nvalue = 1244563.275"] ;
674 -> 675 ;
676 [label="squared_error = -0.001\nsamples = 1\nvalue = 1256599.179"] ;
674 -> 676 ;
677 [label="squared_error = -0.001\nsamples = 1\nvalue = 1192672.334"] ;
673 -> 677 ;
678 [label="squared_error = -0.0\nsamples = 1\nvalue = 1075314.593"] ;
672 -> 678 ;
679 [label="X[4] <= 31945.432\nsquared_error = 5473472981.883\nsamples = 2\nvalue = 1053265.687"] ;
661 -> 679 ;
680 [label="squared_error = 0.0\nsamples = 1\nvalue = 979282.763"] ;
679 -> 680 ;
681 [label="squared_error = 0.0\nsamples = 1\nvalue = 1127248.61"] ;
679 -> 681 ;
682 [label="X[0] <= 56228.357\nsquared_error = 57180261305.582\nsamples = 482\nvalue = 980812.844"] ;
2 -> 682 ;
683 [label="X[2] <= 7.507\nsquared_error = 54081432877.285\nsamples = 143\nvalue = 818078.914"] ;
682 -> 683 ;
684 [label="X[0] <= 48185.428\nsquared_error = 34764480215.515\nsamples = 105\nvalue = 749156.062"] ;
683 -> 684 ;
685 [label="X[2] <= 7.323\nsquared_error = 24255045597.504\nsamples = 29\nvalue = 599907.751"] ;
684 -> 685 ;
686 [label="X[1] <= 5.262\nsquared_error = 20843636711.012\nsamples = 25\nvalue = 569338.575"] ;
685 -> 686 ;
687 [label="X[3] <= 2.8\nsquared_error = 6478937638.509\nsamples = 9\nvalue = 461497.047"] ;
686 -> 687 ;
688 [label="X[0] <= 28725.2\nsquared_error = 2187686124.243\nsamples = 2\nvalue = 349128.543"] ;
687 -> 688 ;
689 [label="squared_error = 0.0\nsamples = 1\nvalue = 302355.836"] ;
688 -> 689 ;
690 [label="squared_error = -0.0\nsamples = 1\nvalue = 395901.25"] ;
688 -> 690 ;
691 [label="X[1] <= 4.068\nsquared_error = 3066636995.633\nsamples = 7\nvalue = 493602.334"] ;
687 -> 691 ;
692 [label="squared_error = 0.0\nsamples = 1\nvalue = 383020.828"] ;
691 -> 692 ;
693 [label="X[1] <= 5.168\nsquared_error = 1200024088.924\nsamples = 6\nvalue = 512032.585"] ;
691 -> 693 ;
694 [label="X[3] <= 3.13\nsquared_error = 590300124.306\nsamples = 5\nvalue = 523933.067"] ;
693 -> 694 ;
695 [label="X[1] <= 4.655\nsquared_error = 2205838.579\nsamples = 2\nvalue = 496094.24"] ;
694 -> 695 ;
696 [label="squared_error = 0.0\nsamples = 1\nvalue = 497579.447"] ;
695 -> 696 ;
697 [label="squared_error = 0.0\nsamples = 1\nvalue = 494609.033"] ;
695 -> 697 ;
698 [label="X[1] <= 4.965\nsquared_error = 121251571.241\nsamples = 3\nvalue = 542492.284"] ;
694 -> 698 ;
699 [label="X[4] <= 49835.766\nsquared_error = 19004037.69\nsamples = 2\nvalue = 535124.035"] ;
698 -> 699 ;
700 [label="squared_error = 0.0\nsamples = 1\nvalue = 539483.397"] ;
699 -> 700 ;
701 [label="squared_error = -0.0\nsamples = 1\nvalue = 530764.672"] ;
699 -> 701 ;
702 [label="squared_error = -0.0\nsamples = 1\nvalue = 557228.784"] ;
698 -> 702 ;
703 [label="squared_error = 0.0\nsamples = 1\nvalue = 452530.177"] ;
693 -> 703 ;
704 [label="X[4] <= 41829.742\nsquared_error = 18702280234.472\nsamples = 16\nvalue = 629999.435"] ;
686 -> 704 ;
705 [label="X[4] <= 38808.16\nsquared_error = 15307286294.53\nsamples = 10\nvalue = 565401.993"] ;
704 -> 705 ;
706 [label="X[2] <= 5.823\nsquared_error = 4547221382.638\nsamples = 5\nvalue = 649426.445"] ;
705 -> 706 ;
707 [label="squared_error = 0.0\nsamples = 1\nvalue = 529282.084"] ;
706 -> 707 ;
708 [label="X[3] <= 4.445\nsquared_error = 1173193196.981\nsamples = 4\nvalue = 679462.535"] ;
706 -> 708 ;
709 [label="X[1] <= 5.367\nsquared_error = 293466556.886\nsamples = 3\nvalue = 697286.613"] ;
708 -> 709 ;
710 [label="squared_error = 0.0\nsamples = 1\nvalue = 718874.68"] ;
709 -> 710 ;
711 [label="X[0] <= 42779.42\nsquared_error = 90666358.749\nsamples = 2\nvalue = 686492.579"] ;
709 -> 711 ;
712 [label="squared_error = 0.0\nsamples = 1\nvalue = 696014.468"] ;
711 -> 712 ;
713 [label="squared_error = -0.0\nsamples = 1\nvalue = 676970.691"] ;
711 -> 713 ;
714 [label="squared_error = 0.0\nsamples = 1\nvalue = 625990.3"] ;
708 -> 714 ;
715 [label="X[0] <= 43551.096\nsquared_error = 11947134382.858\nsamples = 5\nvalue = 481377.542"] ;
705 -> 715 ;
716 [label="X[1] <= 5.473\nsquared_error = 5126499548.161\nsamples = 3\nvalue = 405128.927"] ;
715 -> 716 ;
717 [label="squared_error = 0.0\nsamples = 1\nvalue = 494742.544"] ;
716 -> 717 ;
718 [label="X[0] <= 39987.031\nsquared_error = 1666799068.579\nsamples = 2\nvalue = 360322.118"] ;
716 -> 718 ;
719 [label="squared_error = 0.0\nsamples = 1\nvalue = 401148.569"] ;
718 -> 719 ;
720 [label="squared_error = 0.0\nsamples = 1\nvalue = 319495.668"] ;
718 -> 720 ;
721 [label="X[4] <= 39785.631\nsquared_error = 376144046.118\nsamples = 2\nvalue = 595750.465"] ;
715 -> 721 ;
722 [label="squared_error = 0.0\nsamples = 1\nvalue = 615144.899"] ;
721 -> 722 ;
723 [label="squared_error = 0.0\nsamples = 1\nvalue = 576356.032"] ;
721 -> 723 ;
724 [label="X[0] <= 37120.182\nsquared_error = 5814694728.198\nsamples = 6\nvalue = 737661.838"] ;
704 -> 724 ;
725 [label="squared_error = 0.0\nsamples = 1\nvalue = 599504.019"] ;
724 -> 725 ;
726 [label="X[3] <= 2.115\nsquared_error = 2396613801.72\nsamples = 5\nvalue = 765293.401"] ;
724 -> 726 ;
727 [label="squared_error = 0.0\nsamples = 1\nvalue = 852590.353"] ;
726 -> 727 ;
728 [label="X[2] <= 6.154\nsquared_error = 614280464.181\nsamples = 4\nvalue = 743469.164"] ;
726 -> 728 ;
729 [label="X[0] <= 43358.391\nsquared_error = 240524974.517\nsamples = 2\nvalue = 765628.594"] ;
728 -> 729 ;
730 [label="squared_error = 0.0\nsamples = 1\nvalue = 781137.462"] ;
729 -> 730 ;
731 [label="squared_error = 0.0\nsamples = 1\nvalue = 750119.727"] ;
729 -> 731 ;
732 [label="X[2] <= 6.448\nsquared_error = 5955221.76\nsamples = 2\nvalue = 721309.733"] ;
728 -> 732 ;
733 [label="squared_error = 0.0\nsamples = 1\nvalue = 723750.065"] ;
732 -> 733 ;
734 [label="squared_error = -0.0\nsamples = 1\nvalue = 718869.401"] ;
732 -> 734 ;
735 [label="X[0] <= 46090.004\nsquared_error = 3232975621.408\nsamples = 4\nvalue = 790965.098"] ;
685 -> 735 ;
736 [label="X[3] <= 3.78\nsquared_error = 363454126.036\nsamples = 3\nvalue = 759551.805"] ;
735 -> 736 ;
737 [label="squared_error = 0.0\nsamples = 1\nvalue = 786430.9"] ;
736 -> 737 ;
738 [label="X[2] <= 7.402\nsquared_error = 3316878.016\nsamples = 2\nvalue = 746112.257"] ;
736 -> 738 ;
739 [label="squared_error = 0.0\nsamples = 1\nvalue = 744291.027"] ;
738 -> 739 ;
740 [label="squared_error = 0.0\nsamples = 1\nvalue = 747933.487"] ;
738 -> 740 ;
741 [label="squared_error = -0.0\nsamples = 1\nvalue = 885204.979"] ;
735 -> 741 ;
742 [label="X[2] <= 5.782\nsquared_error = 27031661880.687\nsamples = 76\nvalue = 806106.075"] ;
684 -> 742 ;
743 [label="X[4] <= 43662.686\nsquared_error = 27924058075.711\nsamples = 20\nvalue = 663307.173"] ;
742 -> 743 ;
744 [label="X[4] <= 35270.498\nsquared_error = 17132277062.155\nsamples = 17\nvalue = 618443.518"] ;
743 -> 744 ;
745 [label="X[2] <= 5.485\nsquared_error = 11395000559.28\nsamples = 3\nvalue = 424348.867"] ;
744 -> 745 ;
746 [label="X[0] <= 51611.863\nsquared_error = 2057058731.002\nsamples = 2\nvalue = 353554.701"] ;
745 -> 746 ;
747 [label="squared_error = 0.0\nsamples = 1\nvalue = 398909.51"] ;
746 -> 747 ;
748 [label="squared_error = 0.0\nsamples = 1\nvalue = 308199.891"] ;
746 -> 748 ;
749 [label="squared_error = 0.0\nsamples = 1\nvalue = 565937.201"] ;
745 -> 749 ;
750 [label="X[2] <= 4.987\nsquared_error = 8559094422.723\nsamples = 14\nvalue = 660035.229"] ;
744 -> 750 ;
751 [label="X[4] <= 42007.434\nsquared_error = 8007537608.671\nsamples = 4\nvalue = 558850.72"] ;
750 -> 751 ;
752 [label="X[1] <= 5.274\nsquared_error = 153464941.722\nsamples = 3\nvalue = 610142.171"] ;
751 -> 752 ;
753 [label="squared_error = 0.0\nsamples = 1\nvalue = 593766.185"] ;
752 -> 753 ;
754 [label="X[0] <= 51719.594\nsquared_error = 29067725.03\nsamples = 2\nvalue = 618330.164"] ;
752 -> 754 ;
755 [label="squared_error = 0.0\nsamples = 1\nvalue = 612938.714"] ;
754 -> 755 ;
756 [label="squared_error = 0.0\nsamples = 1\nvalue = 623721.613"] ;
754 -> 756 ;
757 [label="squared_error = 0.0\nsamples = 1\nvalue = 404976.366"] ;
751 -> 757 ;
758 [label="X[0] <= 55609.432\nsquared_error = 3046266362.278\nsamples = 10\nvalue = 700509.033"] ;
750 -> 758 ;
759 [label="X[0] <= 54734.488\nsquared_error = 857348709.018\nsamples = 7\nvalue = 669838.493"] ;
758 -> 759 ;
760 [label="X[2] <= 5.628\nsquared_error = 415065827.248\nsamples = 4\nvalue = 686220.447"] ;
759 -> 760 ;
761 [label="X[3] <= 3.295\nsquared_error = 64106393.482\nsamples = 2\nvalue = 666651.264"] ;
760 -> 761 ;
762 [label="squared_error = 0.0\nsamples = 1\nvalue = 658644.617"] ;
761 -> 762 ;
763 [label="squared_error = -0.0\nsamples = 1\nvalue = 674657.911"] ;
761 -> 763 ;
764 [label="X[0] <= 54272.824\nsquared_error = 119379.872\nsamples = 2\nvalue = 705789.631"] ;
760 -> 764 ;
765 [label="squared_error = 0.0\nsamples = 1\nvalue = 706135.145"] ;
764 -> 765 ;
766 [label="squared_error = 0.0\nsamples = 1\nvalue = 705444.117"] ;
764 -> 766 ;
767 [label="X[1] <= 4.998\nsquared_error = 612135187.066\nsamples = 3\nvalue = 647995.886"] ;
759 -> 767 ;
768 [label="squared_error = 0.0\nsamples = 1\nvalue = 615506.801"] ;
767 -> 768 ;
769 [label="X[3] <= 3.24\nsquared_error = 126547282.122\nsamples = 2\nvalue = 664240.429"] ;
767 -> 769 ;
770 [label="squared_error = 0.0\nsamples = 1\nvalue = 675489.753"] ;
769 -> 770 ;
771 [label="squared_error = -0.0\nsamples = 1\nvalue = 652991.105"] ;
769 -> 771 ;
772 [label="X[1] <= 5.13\nsquared_error = 837324998.875\nsamples = 3\nvalue = 772073.627"] ;
758 -> 772 ;
773 [label="squared_error = 0.0\nsamples = 1\nvalue = 809057.459"] ;
772 -> 773 ;
774 [label="X[0] <= 55800.861\nsquared_error = 230134646.311\nsamples = 2\nvalue = 753581.711"] ;
772 -> 774 ;
775 [label="squared_error = 0.0\nsamples = 1\nvalue = 768751.901"] ;
774 -> 775 ;
776 [label="squared_error = 0.0\nsamples = 1\nvalue = 738411.522"] ;
774 -> 776 ;
777 [label="X[4] <= 55538.498\nsquared_error = 13040353801.338\nsamples = 3\nvalue = 917534.553"] ;
743 -> 777 ;
778 [label="X[3] <= 4.15\nsquared_error = 60581689.521\nsamples = 2\nvalue = 836912.081"] ;
777 -> 778 ;
779 [label="squared_error = 0.0\nsamples = 1\nvalue = 844695.505"] ;
778 -> 779 ;
780 [label="squared_error = 0.0\nsamples = 1\nvalue = 829128.657"] ;
778 -> 780 ;
781 [label="squared_error = 0.0\nsamples = 1\nvalue = 1078779.497"] ;
777 -> 781 ;
782 [label="X[4] <= 45118.025\nsquared_error = 16829300963.976\nsamples = 56\nvalue = 857105.683"] ;
742 -> 782 ;
783 [label="X[1] <= 5.324\nsquared_error = 13246369245.66\nsamples = 37\nvalue = 816765.773"] ;
782 -> 783 ;
784 [label="X[1] <= 3.971\nsquared_error = 5892634366.733\nsamples = 14\nvalue = 736431.601"] ;
783 -> 784 ;
785 [label="squared_error = 0.0\nsamples = 1\nvalue = 552585.354"] ;
784 -> 785 ;
786 [label="X[2] <= 6.718\nsquared_error = 3545960115.105\nsamples = 13\nvalue = 750573.62"] ;
784 -> 786 ;
787 [label="X[3] <= 4.145\nsquared_error = 179007151.354\nsamples = 3\nvalue = 704422.758"] ;
786 -> 787 ;
788 [label="X[4] <= 43868.949\nsquared_error = 70901.352\nsamples = 2\nvalue = 713882.142"] ;
787 -> 788 ;
789 [label="squared_error = 0.0\nsamples = 1\nvalue = 713615.869"] ;
788 -> 789 ;
790 [label="squared_error = -0.0\nsamples = 1\nvalue = 714148.415"] ;
788 -> 790 ;
791 [label="squared_error = 0.0\nsamples = 1\nvalue = 685503.99"] ;
787 -> 791 ;
792 [label="X[4] <= 35868.996\nsquared_error = 3725384192.998\nsamples = 10\nvalue = 764418.879"] ;
786 -> 792 ;
793 [label="squared_error = 0.0\nsamples = 1\nvalue = 663732.397"] ;
792 -> 793 ;
794 [label="X[0] <= 53387.852\nsquared_error = 2887739520.629\nsamples = 9\nvalue = 775606.266"] ;
792 -> 794 ;
795 [label="X[3] <= 4.29\nsquared_error = 11042448.326\nsamples = 2\nvalue = 839662.835"] ;
794 -> 795 ;
796 [label="squared_error = 0.0\nsamples = 1\nvalue = 842985.853"] ;
795 -> 796 ;
797 [label="squared_error = 0.0\nsamples = 1\nvalue = 836339.817"] ;
795 -> 797 ;
798 [label="X[2] <= 6.815\nsquared_error = 2202338820.438\nsamples = 7\nvalue = 757304.389"] ;
794 -> 798 ;
799 [label="squared_error = 0.0\nsamples = 1\nvalue = 841276.586"] ;
798 -> 799 ;
800 [label="X[4] <= 42276.479\nsquared_error = 1198303356.16\nsamples = 6\nvalue = 743309.022"] ;
798 -> 800 ;
801 [label="X[2] <= 6.973\nsquared_error = 209590308.684\nsamples = 4\nvalue = 759069.196"] ;
800 -> 801 ;
802 [label="squared_error = 0.0\nsamples = 1\nvalue = 734562.105"] ;
801 -> 802 ;
803 [label="X[3] <= 4.205\nsquared_error = 12521506.528\nsamples = 3\nvalue = 767238.227"] ;
801 -> 803 ;
804 [label="squared_error = 0.0\nsamples = 1\nvalue = 762402.179"] ;
803 -> 804 ;
805 [label="X[4] <= 38277.277\nsquared_error = 1241741.101\nsamples = 2\nvalue = 769656.251"] ;
803 -> 805 ;
806 [label="squared_error = 0.0\nsamples = 1\nvalue = 768541.916"] ;
805 -> 806 ;
807 [label="squared_error = 0.0\nsamples = 1\nvalue = 770770.585"] ;
805 -> 807 ;
808 [label="X[3] <= 3.375\nsquared_error = 1685431000.176\nsamples = 2\nvalue = 711788.675"] ;
800 -> 808 ;
809 [label="squared_error = 0.0\nsamples = 1\nvalue = 752842.676"] ;
808 -> 809 ;
810 [label="squared_error = 0.0\nsamples = 1\nvalue = 670734.674"] ;
808 -> 810 ;
811 [label="X[0] <= 51562.965\nsquared_error = 11403171959.795\nsamples = 23\nvalue = 865664.834"] ;
783 -> 811 ;
812 [label="X[3] <= 3.75\nsquared_error = 1116434057.079\nsamples = 4\nvalue = 740507.102"] ;
811 -> 812 ;
813 [label="squared_error = 0.0\nsamples = 1\nvalue = 794075.862"] ;
812 -> 813 ;
814 [label="X[1] <= 5.624\nsquared_error = 213195645.029\nsamples = 3\nvalue = 722650.849"] ;
812 -> 814 ;
815 [label="X[0] <= 49998.881\nsquared_error = 9839334.437\nsamples = 2\nvalue = 732815.398"] ;
814 -> 815 ;
816 [label="squared_error = 0.0\nsamples = 1\nvalue = 735952.169"] ;
815 -> 816 ;
817 [label="squared_error = 0.0\nsamples = 1\nvalue = 729678.626"] ;
815 -> 817 ;
818 [label="squared_error = -0.0\nsamples = 1\nvalue = 702321.752"] ;
814 -> 818 ;
819 [label="X[0] <= 55621.49\nsquared_error = 9576750813.261\nsamples = 19\nvalue = 892013.83"] ;
811 -> 819 ;
820 [label="X[2] <= 6.571\nsquared_error = 6942691914.7\nsamples = 16\nvalue = 912443.367"] ;
819 -> 820 ;
821 [label="X[0] <= 52768.371\nsquared_error = 309623171.118\nsamples = 3\nvalue = 806717.137"] ;
820 -> 821 ;
822 [label="squared_error = 0.0\nsamples = 1\nvalue = 783808.402"] ;
821 -> 822 ;
823 [label="X[1] <= 5.79\nsquared_error = 70827157.311\nsamples = 2\nvalue = 818171.505"] ;
821 -> 823 ;
824 [label="squared_error = 0.0\nsamples = 1\nvalue = 809755.618"] ;
823 -> 824 ;
825 [label="squared_error = 0.0\nsamples = 1\nvalue = 826587.392"] ;
823 -> 825 ;
826 [label="X[2] <= 6.636\nsquared_error = 5298573394.307\nsamples = 13\nvalue = 936841.728"] ;
820 -> 826 ;
827 [label="squared_error = 0.0\nsamples = 1\nvalue = 1086825.754"] ;
826 -> 827 ;
828 [label="X[2] <= 7.44\nsquared_error = 3709303777.164\nsamples = 12\nvalue = 924343.059"] ;
826 -> 828 ;
829 [label="X[2] <= 6.741\nsquared_error = 2844269751.007\nsamples = 11\nvalue = 934352.402"] ;
828 -> 829 ;
830 [label="squared_error = 0.0\nsamples = 1\nvalue = 840208.743"] ;
829 -> 830 ;
831 [label="X[1] <= 5.692\nsquared_error = 2153763583.679\nsamples = 10\nvalue = 943766.768"] ;
829 -> 831 ;
832 [label="X[2] <= 7.145\nsquared_error = 1391962280.777\nsamples = 7\nvalue = 922775.189"] ;
831 -> 832 ;
833 [label="X[2] <= 6.903\nsquared_error = 592461502.691\nsamples = 4\nvalue = 905258.466"] ;
832 -> 833 ;
834 [label="squared_error = 0.0\nsamples = 1\nvalue = 945614.566"] ;
833 -> 834 ;
835 [label="X[3] <= 4.38\nsquared_error = 66119855.993\nsamples = 3\nvalue = 891806.432"] ;
833 -> 835 ;
836 [label="X[4] <= 40267.668\nsquared_error = 68839.06\nsamples = 2\nvalue = 886058.652"] ;
835 -> 836 ;
837 [label="squared_error = 0.0\nsamples = 1\nvalue = 886321.024"] ;
836 -> 837 ;
838 [label="squared_error = 0.0\nsamples = 1\nvalue = 885796.28"] ;
836 -> 838 ;
839 [label="squared_error = -0.0\nsamples = 1\nvalue = 903301.993"] ;
835 -> 839 ;
840 [label="X[2] <= 7.185\nsquared_error = 1503363689.058\nsamples = 3\nvalue = 946130.82"] ;
832 -> 840 ;
841 [label="squared_error = 0.0\nsamples = 1\nvalue = 999970.679"] ;
840 -> 841 ;
842 [label="X[1] <= 5.522\nsquared_error = 80997683.375\nsamples = 2\nvalue = 919210.89"] ;
840 -> 842 ;
843 [label="squared_error = 0.0\nsamples = 1\nvalue = 910211.019"] ;
842 -> 843 ;
844 [label="squared_error = -0.0\nsamples = 1\nvalue = 928210.762"] ;
842 -> 844 ;
845 [label="X[3] <= 2.965\nsquared_error = 504050181.0\nsamples = 3\nvalue = 992747.12"] ;
831 -> 845 ;
846 [label="squared_error = 0.0\nsamples = 1\nvalue = 962531.665"] ;
845 -> 846 ;
847 [label="X[2] <= 7.065\nsquared_error = 71344986.462\nsamples = 2\nvalue = 1007854.847"] ;
845 -> 847 ;
848 [label="squared_error = 0.0\nsamples = 1\nvalue = 1016301.443"] ;
847 -> 848 ;
849 [label="squared_error = 0.0\nsamples = 1\nvalue = 999408.251"] ;
847 -> 849 ;
850 [label="squared_error = -0.002\nsamples = 1\nvalue = 814240.282"] ;
828 -> 850 ;
851 [label="X[4] <= 42714.66\nsquared_error = 9527369388.904\nsamples = 3\nvalue = 783056.299"] ;
819 -> 851 ;
852 [label="X[0] <= 55999.227\nsquared_error = 233468659.073\nsamples = 2\nvalue = 714602.944"] ;
851 -> 852 ;
853 [label="squared_error = 0.0\nsamples = 1\nvalue = 729882.625"] ;
852 -> 853 ;
854 [label="squared_error = -0.0\nsamples = 1\nvalue = 699323.262"] ;
852 -> 854 ;
855 [label="squared_error = -0.0\nsamples = 1\nvalue = 919963.009"] ;
851 -> 855 ;
856 [label="X[1] <= 5.495\nsquared_error = 14466470116.091\nsamples = 19\nvalue = 935662.351"] ;
782 -> 856 ;
857 [label="X[1] <= 4.389\nsquared_error = 9543368892.162\nsamples = 14\nvalue = 888650.392"] ;
856 -> 857 ;
858 [label="X[3] <= 4.39\nsquared_error = 7354514969.491\nsamples = 4\nvalue = 792591.485"] ;
857 -> 858 ;
859 [label="X[1] <= 4.159\nsquared_error = 3321535442.471\nsamples = 3\nvalue = 832854.634"] ;
858 -> 859 ;
860 [label="squared_error = 0.0\nsamples = 1\nvalue = 911901.155"] ;
859 -> 860 ;
861 [label="X[0] <= 54126.939\nsquared_error = 296038715.347\nsamples = 2\nvalue = 793331.373"] ;
859 -> 861 ;
862 [label="squared_error = 0.0\nsamples = 1\nvalue = 810537.148"] ;
861 -> 862 ;
863 [label="squared_error = 0.0\nsamples = 1\nvalue = 776125.597"] ;
861 -> 863 ;
864 [label="squared_error = 0.0\nsamples = 1\nvalue = 671802.04"] ;
858 -> 864 ;
865 [label="X[4] <= 48325.834\nsquared_error = 5251614852.165\nsamples = 10\nvalue = 927073.955"] ;
857 -> 865 ;
866 [label="X[3] <= 3.69\nsquared_error = 217870435.737\nsamples = 3\nvalue = 832597.829"] ;
865 -> 866 ;
867 [label="squared_error = 0.0\nsamples = 1\nvalue = 812059.059"] ;
866 -> 867 ;
868 [label="X[4] <= 47860.346\nsquared_error = 10424847.066\nsamples = 2\nvalue = 842867.214"] ;
866 -> 868 ;
869 [label="squared_error = 0.0\nsamples = 1\nvalue = 839638.461"] ;
868 -> 869 ;
870 [label="squared_error = 0.0\nsamples = 1\nvalue = 846095.967"] ;
868 -> 870 ;
871 [label="X[2] <= 5.884\nsquared_error = 1944196149.291\nsamples = 7\nvalue = 967563.723"] ;
865 -> 871 ;
872 [label="squared_error = 0.0\nsamples = 1\nvalue = 880132.844"] ;
871 -> 872 ;
873 [label="X[0] <= 53595.506\nsquared_error = 781864674.778\nsamples = 6\nvalue = 982135.536"] ;
871 -> 873 ;
874 [label="X[3] <= 3.075\nsquared_error = 128672880.286\nsamples = 3\nvalue = 956105.629"] ;
873 -> 874 ;
875 [label="squared_error = 0.0\nsamples = 1\nvalue = 971200.243"] ;
874 -> 875 ;
876 [label="X[3] <= 4.765\nsquared_error = 22123797.951\nsamples = 2\nvalue = 948558.322"] ;
874 -> 876 ;
877 [label="squared_error = 0.0\nsamples = 1\nvalue = 953261.916"] ;
876 -> 877 ;
878 [label="squared_error = -0.0\nsamples = 1\nvalue = 943854.728"] ;
876 -> 878 ;
879 [label="X[0] <= 53978.609\nsquared_error = 79944348.823\nsamples = 3\nvalue = 1008165.443"] ;
873 -> 879 ;
880 [label="squared_error = 0.0\nsamples = 1\nvalue = 996243.425"] ;
879 -> 880 ;
881 [label="X[1] <= 4.761\nsquared_error = 13315637.64\nsamples = 2\nvalue = 1014126.452"] ;
879 -> 881 ;
882 [label="squared_error = 0.0\nsamples = 1\nvalue = 1010477.392"] ;
881 -> 882 ;
883 [label="squared_error = 0.0\nsamples = 1\nvalue = 1017775.512"] ;
881 -> 883 ;
884 [label="X[0] <= 51880.508\nsquared_error = 4735431483.195\nsamples = 5\nvalue = 1067295.835"] ;
856 -> 884 ;
885 [label="squared_error = 0.0\nsamples = 1\nvalue = 942093.924"] ;
884 -> 885 ;
886 [label="X[4] <= 47407.68\nsquared_error = 1020689875.594\nsamples = 4\nvalue = 1098596.312"] ;
884 -> 886 ;
887 [label="X[1] <= 5.696\nsquared_error = 7645280.647\nsamples = 3\nvalue = 1116989.752"] ;
886 -> 887 ;
888 [label="squared_error = 0.0\nsamples = 1\nvalue = 1120419.042"] ;
887 -> 888 ;
889 [label="X[3] <= 3.265\nsquared_error = 2647901.102\nsamples = 2\nvalue = 1115275.108"] ;
887 -> 889 ;
890 [label="squared_error = 0.0\nsamples = 1\nvalue = 1113647.87"] ;
889 -> 890 ;
891 [label="squared_error = 0.001\nsamples = 1\nvalue = 1116902.345"] ;
889 -> 891 ;
892 [label="squared_error = -0.001\nsamples = 1\nvalue = 1043415.992"] ;
886 -> 892 ;
893 [label="X[4] <= 53310.01\nsquared_error = 58062036931.816\nsamples = 38\nvalue = 1008523.638"] ;
683 -> 893 ;
894 [label="X[0] <= 49742.525\nsquared_error = 38936868022.258\nsamples = 31\nvalue = 940598.977"] ;
893 -> 894 ;
895 [label="X[3] <= 6.31\nsquared_error = 16670890253.987\nsamples = 10\nvalue = 744519.736"] ;
894 -> 895 ;
896 [label="X[0] <= 45767.957\nsquared_error = 10109267742.186\nsamples = 9\nvalue = 773526.534"] ;
895 -> 896 ;
897 [label="X[4] <= 40242.881\nsquared_error = 10377798418.635\nsamples = 4\nvalue = 701719.759"] ;
896 -> 897 ;
898 [label="X[0] <= 45144.316\nsquared_error = 42789090.091\nsamples = 2\nvalue = 608514.339"] ;
897 -> 898 ;
899 [label="squared_error = 0.0\nsamples = 1\nvalue = 601973.002"] ;
898 -> 899 ;
900 [label="squared_error = -0.0\nsamples = 1\nvalue = 615055.676"] ;
898 -> 900 ;
901 [label="X[1] <= 5.439\nsquared_error = 3338307068.802\nsamples = 2\nvalue = 794925.179"] ;
897 -> 901 ;
902 [label="squared_error = 0.0\nsamples = 1\nvalue = 737147.094"] ;
901 -> 902 ;
903 [label="squared_error = 0.0\nsamples = 1\nvalue = 852703.264"] ;
901 -> 903 ;
904 [label="X[3] <= 4.2\nsquared_error = 2469496492.417\nsamples = 5\nvalue = 830971.955"] ;
896 -> 904 ;
905 [label="X[4] <= 36950.838\nsquared_error = 2435840061.443\nsamples = 3\nvalue = 806147.513"] ;
904 -> 905 ;
906 [label="X[4] <= 36177.893\nsquared_error = 365105985.185\nsamples = 2\nvalue = 773038.329"] ;
905 -> 906 ;
907 [label="squared_error = 0.0\nsamples = 1\nvalue = 792146.076"] ;
906 -> 907 ;
908 [label="squared_error = -0.0\nsamples = 1\nvalue = 753930.583"] ;
906 -> 908 ;
909 [label="squared_error = -0.0\nsamples = 1\nvalue = 872365.88"] ;
905 -> 909 ;
910 [label="X[3] <= 4.765\nsquared_error = 209032731.113\nsamples = 2\nvalue = 868208.617"] ;
904 -> 910 ;
911 [label="squared_error = 0.0\nsamples = 1\nvalue = 853750.653"] ;
910 -> 911 ;
912 [label="squared_error = 0.0\nsamples = 1\nvalue = 882666.582"] ;
910 -> 912 ;
913 [label="squared_error = 0.001\nsamples = 1\nvalue = 483458.548"] ;
895 -> 913 ;
914 [label="X[1] <= 5.043\nsquared_error = 22513430275.214\nsamples = 21\nvalue = 1033970.045"] ;
894 -> 914 ;
915 [label="X[2] <= 8.104\nsquared_error = 4924734222.077\nsamples = 8\nvalue = 928620.67"] ;
914 -> 915 ;
916 [label="X[0] <= 55860.988\nsquared_error = 5289568725.813\nsamples = 4\nvalue = 975188.913"] ;
915 -> 916 ;
917 [label="X[2] <= 7.848\nsquared_error = 3597518120.048\nsamples = 3\nvalue = 1004579.559"] ;
916 -> 917 ;
918 [label="squared_error = 0.0\nsamples = 1\nvalue = 919926.999"] ;
917 -> 918 ;
919 [label="X[3] <= 5.19\nsquared_error = 21735244.04\nsamples = 2\nvalue = 1046905.839"] ;
917 -> 919 ;
920 [label="squared_error = 0.0\nsamples = 1\nvalue = 1051567.946"] ;
919 -> 920 ;
921 [label="squared_error = -0.0\nsamples = 1\nvalue = 1042243.731"] ;
919 -> 921 ;
922 [label="squared_error = 0.0\nsamples = 1\nvalue = 887016.976"] ;
916 -> 922 ;
923 [label="X[4] <= 44396.381\nsquared_error = 222697283.758\nsamples = 4\nvalue = 882052.428"] ;
915 -> 923 ;
924 [label="X[4] <= 41185.227\nsquared_error = 41703333.664\nsamples = 3\nvalue = 890040.331"] ;
923 -> 924 ;
925 [label="X[0] <= 55034.086\nsquared_error = 7159598.236\nsamples = 2\nvalue = 894337.438"] ;
924 -> 925 ;
926 [label="squared_error = 0.0\nsamples = 1\nvalue = 891661.696"] ;
925 -> 926 ;
927 [label="squared_error = 0.0\nsamples = 1\nvalue = 897013.181"] ;
925 -> 927 ;
928 [label="squared_error = -0.0\nsamples = 1\nvalue = 881446.116"] ;
924 -> 928 ;
929 [label="squared_error = -0.0\nsamples = 1\nvalue = 858088.719"] ;
923 -> 929 ;
930 [label="X[2] <= 8.438\nsquared_error = 22304424128.4\nsamples = 13\nvalue = 1098800.429"] ;
914 -> 930 ;
931 [label="X[0] <= 54031.096\nsquared_error = 16970718016.56\nsamples = 8\nvalue = 1028342.1"] ;
930 -> 931 ;
932 [label="X[2] <= 8.12\nsquared_error = 1271819308.202\nsamples = 4\nvalue = 916760.739"] ;
931 -> 932 ;
933 [label="X[2] <= 7.776\nsquared_error = 168333276.689\nsamples = 3\nvalue = 897219.591"] ;
932 -> 933 ;
934 [label="X[0] <= 52451.092\nsquared_error = 13178812.116\nsamples = 2\nvalue = 906151.203"] ;
933 -> 934 ;
935 [label="squared_error = 0.0\nsamples = 1\nvalue = 902520.94"] ;
934 -> 935 ;
936 [label="squared_error = -0.0\nsamples = 1\nvalue = 909781.467"] ;
934 -> 936 ;
937 [label="squared_error = -0.0\nsamples = 1\nvalue = 879356.366"] ;
933 -> 937 ;
938 [label="squared_error = 0.001\nsamples = 1\nvalue = 975384.181"] ;
932 -> 938 ;
939 [label="X[0] <= 55492.857\nsquared_error = 7768816405.59\nsamples = 4\nvalue = 1139923.461"] ;
931 -> 939 ;
940 [label="X[1] <= 5.833\nsquared_error = 961521568.585\nsamples = 3\nvalue = 1188392.266"] ;
939 -> 940 ;
941 [label="X[4] <= 41176.801\nsquared_error = 137790519.936\nsamples = 2\nvalue = 1167539.674"] ;
940 -> 941 ;
942 [label="squared_error = 0.0\nsamples = 1\nvalue = 1155801.253"] ;
941 -> 942 ;
943 [label="squared_error = -0.0\nsamples = 1\nvalue = 1179278.094"] ;
941 -> 943 ;
944 [label="squared_error = 0.001\nsamples = 1\nvalue = 1230097.451"] ;
940 -> 944 ;
945 [label="squared_error = -0.001\nsamples = 1\nvalue = 994517.045"] ;
939 -> 945 ;
946 [label="X[0] <= 55291.57\nsquared_error = 10186549228.604\nsamples = 5\nvalue = 1211533.755"] ;
930 -> 946 ;
947 [label="X[1] <= 5.513\nsquared_error = 1753244952.432\nsamples = 4\nvalue = 1164672.382"] ;
946 -> 947 ;
948 [label="X[1] <= 5.115\nsquared_error = 122226687.176\nsamples = 3\nvalue = 1188206.576"] ;
947 -> 948 ;
949 [label="squared_error = 0.0\nsamples = 1\nvalue = 1202452.728"] ;
948 -> 949 ;
950 [label="X[3] <= 4.95\nsquared_error = 31125396.617\nsamples = 2\nvalue = 1181083.5"] ;
948 -> 950 ;
951 [label="squared_error = 0.0\nsamples = 1\nvalue = 1175504.486"] ;
950 -> 951 ;
952 [label="squared_error = 0.0\nsamples = 1\nvalue = 1186662.514"] ;
950 -> 952 ;
953 [label="squared_error = -0.0\nsamples = 1\nvalue = 1094069.798"] ;
947 -> 953 ;
954 [label="squared_error = 0.001\nsamples = 1\nvalue = 1398979.249"] ;
946 -> 954 ;
955 [label="X[2] <= 8.135\nsquared_error = 31840669337.339\nsamples = 7\nvalue = 1309332.847"] ;
893 -> 955 ;
956 [label="X[3] <= 4.97\nsquared_error = 4286306390.288\nsamples = 5\nvalue = 1203539.289"] ;
955 -> 956 ;
957 [label="X[2] <= 7.776\nsquared_error = 624346389.919\nsamples = 4\nvalue = 1234307.898"] ;
956 -> 957 ;
958 [label="X[1] <= 5.725\nsquared_error = 692942.792\nsamples = 2\nvalue = 1210277.652"] ;
957 -> 958 ;
959 [label="squared_error = 0.0\nsamples = 1\nvalue = 1211110.084"] ;
958 -> 959 ;
960 [label="squared_error = 0.0\nsamples = 1\nvalue = 1209445.22"] ;
958 -> 960 ;
961 [label="X[4] <= 64234.932\nsquared_error = 93094385.274\nsamples = 2\nvalue = 1258338.144"] ;
957 -> 961 ;
962 [label="squared_error = 0.0\nsamples = 1\nvalue = 1248689.601"] ;
961 -> 962 ;
963 [label="squared_error = 0.0\nsamples = 1\nvalue = 1267986.688"] ;
961 -> 963 ;
964 [label="squared_error = -0.0\nsamples = 1\nvalue = 1080464.852"] ;
956 -> 964 ;
965 [label="X[1] <= 5.914\nsquared_error = 2794152786.627\nsamples = 2\nvalue = 1573816.744"] ;
955 -> 965 ;
966 [label="squared_error = 0.0\nsamples = 1\nvalue = 1520956.997"] ;
965 -> 966 ;
967 [label="squared_error = 0.001\nsamples = 1\nvalue = 1626676.49"] ;
965 -> 967 ;
968 [label="X[2] <= 6.606\nsquared_error = 42604167185.711\nsamples = 339\nvalue = 1049458.721"] ;
682 -> 968 ;
969 [label="X[1] <= 5.543\nsquared_error = 32009567001.057\nsamples = 116\nvalue = 914470.861"] ;
968 -> 969 ;
970 [label="X[4] <= 41362.83\nsquared_error = 20515841039.07\nsamples = 83\nvalue = 855740.316"] ;
969 -> 970 ;
971 [label="X[2] <= 6.001\nsquared_error = 15914899430.912\nsamples = 41\nvalue = 776907.6"] ;
970 -> 971 ;
972 [label="X[1] <= 5.125\nsquared_error = 11652613193.524\nsamples = 20\nvalue = 714652.407"] ;
971 -> 972 ;
973 [label="X[2] <= 5.512\nsquared_error = 10991659401.731\nsamples = 13\nvalue = 678548.777"] ;
972 -> 973 ;
974 [label="X[3] <= 3.75\nsquared_error = 6434010286.144\nsamples = 5\nvalue = 729013.066"] ;
973 -> 974 ;
975 [label="X[0] <= 60249.41\nsquared_error = 2358859060.385\nsamples = 2\nvalue = 807454.776"] ;
974 -> 975 ;
976 [label="squared_error = 0.0\nsamples = 1\nvalue = 856022.862"] ;
975 -> 976 ;
977 [label="squared_error = -0.0\nsamples = 1\nvalue = 758886.689"] ;
975 -> 977 ;
978 [label="X[2] <= 5.269\nsquared_error = 2313998017.157\nsamples = 3\nvalue = 676718.593"] ;
974 -> 978 ;
979 [label="squared_error = 0.0\nsamples = 1\nvalue = 609402.775"] ;
978 -> 979 ;
980 [label="X[2] <= 5.393\nsquared_error = 72432512.746\nsamples = 2\nvalue = 710376.502"] ;
978 -> 980 ;
981 [label="squared_error = 0.0\nsamples = 1\nvalue = 701865.773"] ;
980 -> 981 ;
982 [label="squared_error = 0.0\nsamples = 1\nvalue = 718887.232"] ;
980 -> 982 ;
983 [label="X[1] <= 4.884\nsquared_error = 11253754336.885\nsamples = 8\nvalue = 647008.597"] ;
973 -> 983 ;
984 [label="X[4] <= 35077.338\nsquared_error = 6290689502.355\nsamples = 5\nvalue = 584487.882"] ;
983 -> 984 ;
985 [label="squared_error = 0.0\nsamples = 1\nvalue = 437146.02"] ;
984 -> 985 ;
986 [label="X[4] <= 40481.004\nsquared_error = 1079104277.382\nsamples = 4\nvalue = 621323.348"] ;
984 -> 986 ;
987 [label="X[2] <= 5.554\nsquared_error = 513462775.525\nsamples = 3\nvalue = 636533.073"] ;
986 -> 987 ;
988 [label="squared_error = 0.0\nsamples = 1\nvalue = 664298.971"] ;
987 -> 988 ;
989 [label="X[3] <= 2.865\nsquared_error = 191985326.148\nsamples = 2\nvalue = 622650.124"] ;
987 -> 989 ;
990 [label="squared_error = 0.0\nsamples = 1\nvalue = 608794.247"] ;
989 -> 990 ;
991 [label="squared_error = -0.0\nsamples = 1\nvalue = 636506.001"] ;
989 -> 991 ;
992 [label="squared_error = 0.0\nsamples = 1\nvalue = 575694.173"] ;
986 -> 992 ;
993 [label="X[0] <= 63144.475\nsquared_error = 2152907999.791\nsamples = 3\nvalue = 751209.788"] ;
983 -> 993 ;
994 [label="X[4] <= 36192.453\nsquared_error = 120389715.629\nsamples = 2\nvalue = 719017.8"] ;
993 -> 994 ;
995 [label="squared_error = 0.0\nsamples = 1\nvalue = 708045.575"] ;
994 -> 995 ;
996 [label="squared_error = 0.0\nsamples = 1\nvalue = 729990.024"] ;
994 -> 996 ;
997 [label="squared_error = -0.0\nsamples = 1\nvalue = 815593.764"] ;
993 -> 997 ;
998 [label="X[3] <= 3.135\nsquared_error = 5963716302.497\nsamples = 7\nvalue = 781702.006"] ;
972 -> 998 ;
999 [label="X[0] <= 62591.008\nsquared_error = 2677474664.247\nsamples = 3\nvalue = 853726.079"] ;
998 -> 999 ;
1000 [label="squared_error = 0.0\nsamples = 1\nvalue = 782800.495"] ;
999 -> 1000 ;
1001 [label="X[1] <= 5.269\nsquared_error = 243383128.439\nsamples = 2\nvalue = 889188.871"] ;
999 -> 1001 ;
1002 [label="squared_error = 0.0\nsamples = 1\nvalue = 873588.13"] ;
1001 -> 1002 ;
1003 [label="squared_error = 0.0\nsamples = 1\nvalue = 904789.612"] ;
1001 -> 1003 ;
1004 [label="X[0] <= 63633.828\nsquared_error = 1619846903.135\nsamples = 4\nvalue = 727683.95"] ;
998 -> 1004 ;
1005 [label="X[0] <= 60285.91\nsquared_error = 412272918.032\nsamples = 3\nvalue = 748585.643"] ;
1004 -> 1005 ;
1006 [label="X[4] <= 36521.135\nsquared_error = 6713657.211\nsamples = 2\nvalue = 734306.337"] ;
1005 -> 1006 ;
1007 [label="squared_error = 0.0\nsamples = 1\nvalue = 731715.264"] ;
1006 -> 1007 ;
1008 [label="squared_error = 0.0\nsamples = 1\nvalue = 736897.41"] ;
1006 -> 1008 ;
1009 [label="squared_error = 0.0\nsamples = 1\nvalue = 777144.254"] ;
1005 -> 1009 ;
1010 [label="squared_error = -0.0\nsamples = 1\nvalue = 664978.874"] ;
1004 -> 1010 ;
1011 [label="X[1] <= 4.357\nsquared_error = 12767685916.042\nsamples = 21\nvalue = 836198.259"] ;
971 -> 1011 ;
1012 [label="X[0] <= 65884.914\nsquared_error = 7795215094.289\nsamples = 4\nvalue = 679000.511"] ;
1011 -> 1012 ;
1013 [label="X[2] <= 6.177\nsquared_error = 1719632567.712\nsamples = 2\nvalue = 595721.507"] ;
1012 -> 1013 ;
1014 [label="squared_error = 0.0\nsamples = 1\nvalue = 554253.054"] ;
1013 -> 1014 ;
1015 [label="squared_error = 0.0\nsamples = 1\nvalue = 637189.959"] ;
1013 -> 1015 ;
1016 [label="X[4] <= 36195.045\nsquared_error = 12602.618\nsamples = 2\nvalue = 762279.515"] ;
1012 -> 1016 ;
1017 [label="squared_error = 0.0\nsamples = 1\nvalue = 762391.776"] ;
1016 -> 1017 ;
1018 [label="squared_error = 0.0\nsamples = 1\nvalue = 762167.253"] ;
1016 -> 1018 ;
1019 [label="X[3] <= 4.405\nsquared_error = 6755204644.086\nsamples = 17\nvalue = 873185.965"] ;
1011 -> 1019 ;
1020 [label="X[4] <= 36003.525\nsquared_error = 5443791304.678\nsamples = 16\nvalue = 863087.585"] ;
1019 -> 1020 ;
1021 [label="X[0] <= 58498.443\nsquared_error = 286779958.078\nsamples = 2\nvalue = 738909.13"] ;
1020 -> 1021 ;
1022 [label="squared_error = 0.0\nsamples = 1\nvalue = 755843.709"] ;
1021 -> 1022 ;
1023 [label="squared_error = 0.0\nsamples = 1\nvalue = 721974.551"] ;
1021 -> 1023 ;
1024 [label="X[3] <= 2.91\nsquared_error = 3662909058.53\nsamples = 14\nvalue = 880827.365"] ;
1020 -> 1024 ;
1025 [label="X[0] <= 65870.664\nsquared_error = 2640270063.912\nsamples = 6\nvalue = 917454.108"] ;
1024 -> 1025 ;
1026 [label="X[3] <= 2.21\nsquared_error = 1728943508.156\nsamples = 5\nvalue = 901965.507"] ;
1025 -> 1026 ;
1027 [label="X[0] <= 62793.18\nsquared_error = 380809176.589\nsamples = 3\nvalue = 873398.147"] ;
1026 -> 1027 ;
1028 [label="X[4] <= 38917.725\nsquared_error = 130347856.952\nsamples = 2\nvalue = 885520.659"] ;
1027 -> 1028 ;
1029 [label="squared_error = 0.0\nsamples = 1\nvalue = 896937.658"] ;
1028 -> 1029 ;
1030 [label="squared_error = 0.0\nsamples = 1\nvalue = 874103.661"] ;
1028 -> 1030 ;
1031 [label="squared_error = 0.0\nsamples = 1\nvalue = 849153.123"] ;
1027 -> 1031 ;
1032 [label="X[2] <= 6.543\nsquared_error = 690792383.449\nsamples = 2\nvalue = 944816.546"] ;
1026 -> 1032 ;
1033 [label="squared_error = 0.0\nsamples = 1\nvalue = 971099.475"] ;
1032 -> 1033 ;
1034 [label="squared_error = 0.0\nsamples = 1\nvalue = 918533.616"] ;
1032 -> 1034 ;
1035 [label="squared_error = -0.0\nsamples = 1\nvalue = 994897.113"] ;
1025 -> 1035 ;
1036 [label="X[1] <= 5.03\nsquared_error = 2669145529.065\nsamples = 8\nvalue = 853357.307"] ;
1024 -> 1036 ;
1037 [label="X[3] <= 4.37\nsquared_error = 1198253600.626\nsamples = 5\nvalue = 824790.429"] ;
1036 -> 1037 ;
1038 [label="X[0] <= 60243.336\nsquared_error = 175262197.572\nsamples = 4\nvalue = 808526.637"] ;
1037 -> 1038 ;
1039 [label="squared_error = 0.0\nsamples = 1\nvalue = 790555.52"] ;
1038 -> 1039 ;
1040 [label="X[1] <= 4.965\nsquared_error = 90144702.224\nsamples = 3\nvalue = 814517.009"] ;
1038 -> 1040 ;
1041 [label="X[1] <= 4.665\nsquared_error = 27815535.711\nsamples = 2\nvalue = 808533.656"] ;
1040 -> 1041 ;
1042 [label="squared_error = 0.0\nsamples = 1\nvalue = 803259.613"] ;
1041 -> 1042 ;
1043 [label="squared_error = 0.0\nsamples = 1\nvalue = 813807.7"] ;
1041 -> 1043 ;
1044 [label="squared_error = -0.0\nsamples = 1\nvalue = 826483.713"] ;
