digraph Tree {
node [shape=box, fontname="helvetica"] ;
edge [fontname="helvetica"] ;
0 [label="X[10] <= 10.525\nsquared_error = 0.659\nsamples = 1119\nvalue = 5.622"] ;
1 [label="X[9] <= 0.575\nsquared_error = 0.44\nsamples = 692\nvalue = 5.344"] ;
0 -> 1 [labeldistance=2.5, labelangle=45, headlabel="True"] ;
2 [label="X[1] <= 0.81\nsquared_error = 0.35\nsamples = 284\nvalue = 5.127"] ;
1 -> 2 ;
3 [label="X[7] <= 1.001\nsquared_error = 0.308\nsamples = 247\nvalue = 5.178"] ;
2 -> 3 ;
4 [label="squared_error = 0.29\nsamples = 246\nvalue = 5.187"] ;
3 -> 4 ;
5 [label="squared_error = 0.0\nsamples = 1\nvalue = 3.0"] ;
3 -> 5 ;
6 [label="X[0] <= 7.15\nsquared_error = 0.494\nsamples = 37\nvalue = 4.784"] ;
2 -> 6 ;
7 [label="squared_error = 0.25\nsamples = 4\nvalue = 3.5"] ;
6 -> 7 ;
8 [label="squared_error = 0.299\nsamples = 33\nvalue = 4.939"] ;
6 -> 8 ;
9 [label="X[1] <= 0.405\nsquared_error = 0.446\nsamples = 408\nvalue = 5.495"] ;
1 -> 9 ;
10 [label="X[10] <= 9.75\nsquared_error = 0.528\nsamples = 96\nvalue = 5.844"] ;
9 -> 10 ;
11 [label="squared_error = 0.377\nsamples = 45\nvalue = 5.578"] ;
10 -> 11 ;
12 [label="squared_error = 0.543\nsamples = 51\nvalue = 6.078"] ;
10 -> 12 ;
13 [label="X[6] <= 65.5\nsquared_error = 0.372\nsamples = 312\nvalue = 5.388"] ;
9 -> 13 ;
14 [label="squared_error = 0.409\nsamples = 226\nvalue = 5.478"] ;
13 -> 14 ;
15 [label="squared_error = 0.198\nsamples = 86\nvalue = 5.151"] ;
13 -> 15 ;
16 [label="X[9] <= 0.585\nsquared_error = 0.686\nsamples = 427\nvalue = 6.073"] ;
0 -> 16 [labeldistance=2.5, labelangle=-45, headlabel="False"] ;
17 [label="X[1] <= 0.99\nsquared_error = 0.811\nsamples = 107\nvalue = 5.505"] ;
16 -> 17 ;
18 [label="X[1] <= 0.385\nsquared_error = 0.616\nsamples = 100\nvalue = 5.62"] ;
17 -> 18 ;
19 [label="squared_error = 0.472\nsamples = 30\nvalue = 6.167"] ;
18 -> 19 ;
20 [label="squared_error = 0.494\nsamples = 70\nvalue = 5.386"] ;
18 -> 20 ;
21 [label="X[4] <= 0.083\nsquared_error = 0.694\nsamples = 7\nvalue = 3.857"] ;
17 -> 21 ;
22 [label="squared_error = 0.25\nsamples = 4\nvalue = 4.5"] ;
21 -> 22 ;
23 [label="squared_error = 0.0\nsamples = 3\nvalue = 3.0"] ;
21 -> 23 ;
24 [label="X[10] <= 11.55\nsquared_error = 0.5\nsamples = 320\nvalue = 6.262"] ;
16 -> 24 ;
25 [label="X[6] <= 61.5\nsquared_error = 0.409\nsamples = 195\nvalue = 6.041"] ;
24 -> 25 ;
26 [label="squared_error = 0.36\nsamples = 169\nvalue = 6.112"] ;
25 -> 26 ;
27 [label="squared_error = 0.475\nsamples = 26\nvalue = 5.577"] ;
25 -> 27 ;
28 [label="X[9] <= 0.685\nsquared_error = 0.446\nsamples = 125\nvalue = 6.608"] ;
24 -> 28 ;
29 [label="squared_error = 0.422\nsamples = 47\nvalue = 6.298"] ;
28 -> 29 ;
30 [label="squared_error = 0.368\nsamples = 78\nvalue = 6.795"] ;
28 -> 30 ;
}